/*This file is automatically generated from a Keras model*/

#ifdef HAVE_CONFIG_H
#include "config.h"
#endif

#include "rnn.h"
#include "rnn_data.h"

static const rnn_weight input_dense_weights[1008] = {
   14, 19, -9, 29, 56, -49, -43, -38,
   -38, -31, 9, 38, -30, -60, -5, 82,
   -28, -23, 37, 2, 49, 14, 3, 20,
   30, 14, 65, -47, 58, 23, 8, 21,
   24, -80, -14, -43, -72, -60, 50, -38,
   -56, -33, 10, 35, -40, 58, -88, -3,
   21, -19, 46, 3, 13, 15, -27, -48,
   -47, -45, 10, -83, -64, -85, -49, -46,
   -46, -88, 65, -14, 17, -79, 41, 35,
   32, 52, -3, -43, 42, -5, -35, -39,
   8, 20, 37, -87, 10, -38, 97, -30,
   -38, 56, 51, 65, 7, 24, -15, 34,
   -34, -65, 39, 19, -48, 79, 32, 1,
   -56, -47, -41, 13, -21, -51, 16, 47,
   -7, 26, 36, -32, -66, 42, -68, 10,
   -17, -12, -20, -34, 38, -15, 17, 4,
   -12, -44, 5, 52, 23, -49, -61, -29,
   -37, -93, -6, 71, -11, 19, 4, 20,
   -41, -63, -11, -47, -5, 95, 56, -105,
   -98, -85, -91, 8, -19, -117, 28, 71,
   -106, 46, 43, -111, -12, -13, 1, -3,
   -99, -53, 13, 92, 23, -21, -34, -3,
   -90, -32, 84, -16, 1, -48, 6, 33,
   -98, -126, -15, 115, 124, -37, -23, -18,
   -43, -37, -61, 0, 107, 82, 15, -109,
   18, 18, -53, 28, -28, -2, -54, -30,
   -93, 22, 21, -30, 79, 36, 2, -7,
   -7, -3, 52, -2, -79, 40, 41, 26,
   -8, -9, -10, -21, -18, 5, 39, -63,
   -56, -14, 31, 58, 24, -72, 66, -24,
   -23, 45, 15, -23, 33, 2, -36, -53,
   19, 71, 26, 81, -35, 9, 70, -80,
   -77, -39, -30, -66, 4, -41, 47, -70,
   6, -16, -74, 41, -84, 55, 42, -71,
   -7, 32, -7, 70, 19, 17, -9, -7,
   -34, 37, -39, 1, -36, 11, 8, -51,
   -37, -99, 6, 92, 6, 58, 84, 17,
   46, 79, 11, 30, 12, -85, -40, -17,
   39, -4, -39, 15, 5, -82, 104, 20,
   85, 112, 75, -20, -57, -31, 24, -92,
   106, 14, 103, -75, 12, 24, 87, 30,
   -62, -38, 5, 62, -107, 127, 3, 15,
   127, 36, 103, -67, 3, 57, 81, -128,
   -93, 21, -21, 37, 15, 31, 66, 14,
   74, 21, -43, -64, -55, -37, 43, -89,
   -66, -19, -128, -82, -42, 50, 99, -17,
   -59, -58, -60, -93, -44, -43, -61, 97,
   100, 127, 22, -56, -21, -10, 126, 41,
   48, -101, -21, 22, -14, 117, -5, -128,
   -75, 57, -14, -52, 65, 19, 66, -108,
   21, 10, -39, -28, -35, 56, 44, -98,
   -103, -33, -82, -16, 81, 62, -17, -38,
   127, -63, 6, 9, 34, 32, 6, 45,
   49, 45, -59, -7, 35, 44, -32, -7,
   23, -85, -32, 66, 95, 29, -55, -68,
   -5, 21, -13, -25, 109, -12, 13, -75,
   -32, 26, 85, 81, -9, 2, 26, 14,
   99, -63, -47, -128, 100, -3, 5, 7,
   97, 4, -46, 120, 11, 12, 11, -39,
   20, 22, -8, 28, -17, -71, 124, -127,
   14, 127, 5, -49, 50, -33, -27, -6,
   28, -33, 0, 8, -47, -91, 36, 38,
   -42, -127, 11, -28, -27, -8, 60, 40,
   43, -104, 8, -35, 43, 92, -30, -121,
   127, -9, -6, 36, 37, 40, 127, -21,
   30, 127, 18, 16, 100, 21, -106, -91,
   -44, 68, 9, 115, 49, -74, -47, 78,
   -74, -35, 121, 1, -41, -38, -27, 26,
   -50, 40, 122, 41, -54, 55, 15, 127,
   16, -30, 127, -127, 0, -8, -51, 19,
   -25, -128, 3, -59, -109, -87, 103, -53,
   -123, -92, -61, 127, 10, 86, -128, 30,
   -120, 8, 9, 86, -15, 13, -32, 70,
   -113, -72, 22, -102, -103, -32, -95, 50,
   -121, -42, 105, -5, -106, -21, -86, 43,
   -49, 14, -72, -47, -23, -23, -79, -127,
   -17, -16, 32, -53, 62, -27, 104, 97,
   -83, -17, 98, 63, -2, 23, -63, 57,
   -72, -43, 30, 65, 9, 21, 29, 53,
   -104, -85, -7, -49, 5, -95, 5, -4,
   -60, -65, 34, 79, -60, 62, -84, 72,
   63, 29, -17, -66, -15, -43, -46, -18,
   1, -51, 38, 6, 41, -86, -30, 34,
   -37, -84, -82, 67, 21, -23, 22, 89,
   64, 24, 66, -7, 15, -47, -54, 13,
   -48, -16, 98, 34, -67, -45, 66, 83,
   22, -104, 75, 49, 13, 7, 26, 127,
   -125, -24, 14, -38, 7, 47, -31, 84,
   4, -36, 30, -24, -70, -43, 35, -6,
   -11, -108, 9, 108, -17, 58, -128, -54,
   91, -51, 103, 60, 34, -57, -78, -38,
   -19, -49, -8, 59, -77, -51, 1, 127,
   -57, 9, 73, 7, 103, -4, -19, 127,
   26, 5, 63, -7, 96, 46, -68, 10,
   8, -46, 40, 101, -56, -54, 39, -38,
   2, -53, -43, 54, -18, 47, -98, 48,
   -36, -27, -35, 23, -10, -4, -2, -25,
   -61, 3, -20, 49, -42, -41, 12, -57,
   -2, -34, 30, 44, -30, 39, -74, 70,
   -42, -18, -1, -84, -53, 81, 23, -91,
   29, -44, -21, 49, -48, -40, 112, 57,
   13, -13, -37, 5, -56, -26, -35, 23,
   45, -17, -16, 33, -122, -73, 2, -75,
   -22, -66, 93, -18, 24, -68, -12, -89,
   -116, -46, 57, 100, 26, -56, -66, 108,
   43, 95, -4, -15, -49, -44, 28, -65,
   50, 18, 113, 78, -98, -94, -42, 23,
   -108, -110, -7, 12, 13, 53, -89, 45,
   -78, -8, -57, -8, 102, 58, 26, -45,
   -25, -66, -99, 127, -52, 5, -9, 68,
   16, -71, -8, -51, -34, 12, -36, 48,
   14, 0, 1, -66, -86, 28, 100, -62,
   -21, -15, -57, 59, -45, 8, 15, -24,
   -41, -34, 63, 60, -5, -5, 42, -47,
   91, 9, 89, 21, -27, 8, 31, 10,
   69, 13, 17, 8, -61, 7, 36, 23,
   26, 44, 37, 40, -47, 29, 29, 96,
   31, 6, -32, 17, -75, -36, -17, 9,
   59, 2, 90, 127, -57, -24, 12, 6,
   -80, -61, 59, -7, 19, 3, -56, 38,
   -9, 57, -40, 25, -117, 30, -25, 45,
   18, 39, 36, -11, 23, 32, -4, -3,
   66, 73, -17, 20, 41, 31, 51, -33,
   -87, 8, 8, -64, -40, -12, -10, 42,
   20, -16, 14, -56, 39, -24, 19, -10,
   35, -57, -10, -20, -108, -10, -43, 77
};

static const rnn_weight input_dense_bias[24] = {
   91, -50, -46, -103, -26, 74, 20, 18,
   66, 31, -91, -30, -1, 78, 4, -2,
   98, 52, -69, -4, -15, -7, 18, -101
};

static const DenseLayer input_dense = {
   input_dense_bias,
   input_dense_weights,
   42, 24, ACTIVATION_TANH
};

static const rnn_weight vad_gru_weights[1728] = {
   67, 50, 64, 10, -61, 55, 106, 46,
   48, -57, -81, 17, 57, 95, 30, 37,
   36, -9, -57, 111, -32, 76, 104, -3,
   20, -46, -71, -51, -53, -43, 32, -21,
   43, 47, -6, -64, -60, -47, -41, -71,
   45, 65, -27, 56, -17, -104, -19, 54,
   118, -1, -47, -23, 14, 1, 17, 46,
   81, -68, 30, -23, -2, 46, 31, 11,
   -32, 64, -86, -22, -6, 17, -8, -6,
   48, -38, -13, 54, 6, -35, -28, -20,
   -54, 37, -9, 32, 9, -57, 5, 81,
   8, -22, -127, -10, 20, 16, -46, -30,
   -12, 6, 32, 25, -1, -73, 45, -51,
   -37, -13, -51, 36, 24, 32, -6, -120,
   -4, -66, 89, -114, -7, 5, -25, 17,
   4, 28, 53, -31, 23, 58, 58, -36,
   -78, 68, 12, 19, 19, -28, -27, -32,
   25, -68, 66, 67, 28, -9, 103, -41,
   53, 21, 4, -76, -36, 35, 35, -27,
   -70, -106, -99, -5, -54, -4, 9, -22,
   -80, -47, -65, -16, -62, 19, -1, 15,
   52, 34, -50, -28, 6, -26, 25, 48,
   56, -17, 77, 60, -116, -73, -49, 29,
   -8, 77, -35, -52, 59, -12, 70, 15,
   -51, -54, 8, -10, 59, 1, 39, -24,
   -48, 42, -32, 33, -82, -65, -5, -30,
   -32, -13, 76, 31, -64, -31, 5, 78,
   -6, 49, -9, -18, 30, 13, 11, 13,
   -14, -2, 45, 84, 28, -30, -2, -17,
   112, 73, -92, -89, 82, 17, -14, 33,
   -61, -10, 15, -51, 31, -85, 34, 29,
   -29, -66, -74, 9, 18, 52, -49, 45,
   -63, 24, 57, -16, 3, 34, -73, 27,
   -5, 0, 48, 14, 55, -4, 90, -68,
   -28, -19, -22, 9, -46, -54, -25, 35,
   48, 4, 97, -36, 22, -16, 46, -17,
   38, 111, 71, 6, 60, 0, 8, 57,
   -59, -48, -44, 73, 48, 29, 126, 69,
   80, 80, -41, 21, 74, 27, 5, 111,
   -21, 28, -48, -31, -81, -49, -23, -34,
   30, -45, 74, 61, -49, -54, -106, -69,
   55, 55, 44, -35, -62, -76, -1, 107,
   119, 2, -13, 30, 35, -36, -65, 19,
   21, 5, 78, -85, 42, 6, 17, 6,
   -46, 36, -90, 39, -15, 5, -14, -43,
   -21, 29, 40, 22, -29, 17, 17, 9,
   62, -55, -24, 49, -9, -15, -6, -16,
   55, 34, 87, 21, -45, 33, 38, 69,
   23, -9, -27, -45, 2, -26, -9, 44,
   -47, 3, 52, -5, 4, 75, 127, 24,
   50, 76, -128, 92, -14, -43, 63, -23,
   19, 50, -5, -17, -3, 0, -26, 54,
   11, -21, -24, -28, 30, 73, 54, 62,
   -30, 37, -34, -44, 45, 37, -80, -44,
   25, 11, -10, 76, 46, 31, 60, 66,
   64, -35, -107, 52, 44, -11, -4, 13,
   127, 73, 47, -13, -50, 35, -22, 31,
   -42, -18, 95, -27, 41, -5, 1, -40,
   -35, 25, -38, 59, 43, 42, 96, -18,
   34, -43, -65, 69, -11, 15, 30, -33,
   -23, 84, 19, 32, -8, -50, 11, 69,
   14, -16, 30, -41, -6, 22, -35, 0,
   0, 73, 35, 8, 84, 84, -37, 6,
   30, 28, 100, -80, 8, 17, 48, -37,
   127, 61, 52, 44, -31, 7, 61, 1,
   114, 21, 118, -18, 69, -34, -47, 5,
   -93, -16, 13, 2, -18, -35, -5, -21,
   11, 3, 4, 47, -119, 34, 75, 104,
   89, 89, -82, 106, 41, -18, -28, 0,
   -12, -23, -44, -42, -1, 31, -36, -40,
   43, -12, -1, -70, 5, -34, 44, 49,
   -13, -31, -35, -20, -17, -23, -38, -68,
   100, 111, -3, -35, 9, 32, 79, 94,
   46, 61, 37, 69, -1, -16, 13, 40,
   113, 53, 58, 74, 65, 75, 116, 51,
   -97, 16, -24, 0, 114, -88, 10, 13,
   -107, -91, -37, -32, 30, 90, 127, 124,
   24, 41, 9, 41, -20, -30, -121, -8,
   -7, 74, -34, 13, -72, -86, -42, -5,
   117, -21, 31, -48, 45, 98, 16, 50,
   7, 57, -14, -29, 65, 85, -30, -99,
   -14, 55, 28, -41, -61, -5, 12, 60,
   26, 78, 12, -11, 67, 14, 106, 24,
   76, 1, -70, 60, 92, 12, 31, 29,
   -125, -3, 65, -31, 127, -39, 72, -27,
   -15, 21, -106, -8, 16, 98, 127, 127,
   127, 31, -10, 71, 7, 127, 3, 28,
   -49, 50, -45, -19, -15, 12, -24, 35,
   -26, -20, -17, 3, 51, 16, 15, 5,
   -49, 58, -6, 38, 20, 36, -15, -35,
   20, 37, -45, 7, 24, 34, 10, -42,
   -56, -104, -20, -22, -47, -94, -98, -43,
   32, -12, -45, -120, 41, 24, -84, 27,
   -23, -12, 28, -49, -47, 23, -14, -20,
   -35, 4, 7, -46, -92, 51, 4, -12,
   -34, -36, -24, -72, 31, 55, -113, 41,
   -70, -57, 19, 19, -12, -25, 48, 2,
   -32, 15, -19, 75, -65, 8, -61, 27,
   52, -43, 42, -6, -47, 12, 67, 72,
   -27, 50, 45, 72, 26, 21, -18, 24,
   35, 82, 23, 2, 27, -20, 8, 54,
   67, 61, 40, -20, -42, 51, 12, -3,
   -43, -58, -40, -67, 6, -23, -3, 2,
   -2, 40, 11, -66, 7, 46, -13, 39,
   29, -33, 121, -52, 65, -11, -22, 9,
   -56, 1, 26, 42, 9, -31, 78, -11,
   -43, -48, 34, 24, 53, -27, -40, 25,
   -28, 24, -43, 63, 42, 24, 42, 26,
   22, -32, -42, -53, 27, 66, 43, -46,
   -22, 75, 121, -28, 20, -11, 77, -5,
   -15, 11, 76, -14, 36, -57, -1, -10,
   -127, -24, 117, -98, 111, 60, 21, 61,
   57, -10, -12, -49, 31, 47, 37, 72,
   -44, -91, 53, 33, -29, 75, -42, -26,
   -33, -35, -56, -7, -46, 40, 11, 42,
   -2, -32, -18, 4, -68, 7, 77, 68,
   -17, -25, -66, -50, 26, 36, -16, -61,
   56, -27, 31, 44, -68, 21, 41, 59,
   2, 72, 28, 19, 5, 67, 23, -5,
   -26, -23, -89, -15, 6, 63, -29, 1,
   -18, 64, 114, 41, 75, -78, 127, 15,
   -66, -97, -128, -59, 26, 127, 120, 48,
   35, -12, 35, 51, 9, 90, -20, -28,
   -99, -7, -26, 86, 32, -2, -41, 16,
   1, -41, 37, -53, 55, 18, 32, -4,
   -46, -21, 23, -77, -12, 15, -47, -29,
   24, -86, -4, -49, -23, -57, 13, -50,
   -84, 0, -86, -54, 9, -59, -9, -42,
   -66, -95, -54, 6, -128, -41, -70, -80,
   104, 63, -12, 31, 59, 84, 18, 42,
   -19, 14, 127, 8, -33, 17, -26, -93,
   -13, -8, -23, -77, 9, -1, -57, 19,
   -49, -19, 14, -7, 7, 22, -14, -52,
   -27, 15, -81, -13, -19, 1, -16, -27,
   20, -19, 51, -33, 49, -64, 75, -41,
   3, 71, 58, -4, -57, -77, 6, -79,
   13, 61, 38, -8, 55, 62, 5, -63,
   -28, 21, 77, 0, 30, 62, 26, 43,
   17, -63, -4, 21, -26, -7, -7, -20,
   -16, -44, 32, 19, 24, 11, -86, -33,
   -47, 17, 19, -64, 68, -65, -65, 2,
   26, -36, -22, -82, 59, 68, 1, 13,
   47, 33, 0, 18, 36, 25, 10, -43,
   25, 40, 4, 8, 41, 26, -5, 26,
   5, -15, -32, 28, -78, 5, 9, -22,
   26, 19, 72, 60, 39, 5, 14, 22,
   -29, -54, -37, -21, -19, 29, -38, 12,
   -63, 48, 123, -99, 24, -87, 60, 69,
   -80, -33, -128, -92, 35, 127, 127, 127,
   -5, -6, -59, 109, -76, -6, 64, 40,
   82, -21, 15, 24, 25, -71, -51, 64,
   43, -71, 25, -83, 100, 43, 16, 51,
   11, 65, 8, -37, 9, 39, 26, 34,
   9, -33, 1, 12, -26, -5, -40, -23,
   25, -35, 44, 10, 50, -13, 21, -6,
   7, 19, -76, 71, -17, -3, 91, -24,
   45, 48, 86, 25, 6, -25, 47, -34,
   -17, -5, -10, 66, 16, 54, 35, 76,
   32, -68, -5, 98, -40, 42, -64, 4,
   53, 61, 37, -26, -21, -75, -73, 72,
   19, 2, 59, -38, 11, 69, -32, 29,
   -72, -30, -42, 0, 25, 58, -57, 28,
   -80, -42, -12, 30, 36, -40, 15, 36,
   -38, -30, -43, -35, 36, -64, -54, -32,
   -42, -18, -70, 39, -50, -54, 45, -65,
   95, 94, 11, 105, -51, 49, 35, -49,
   -24, -43, 57, 33, 68, -17, 7, -96,
   -23, -49, 117, -115, -32, 51, -19, -54,
   -3, 9, 71, -48, 16, 17, 71, -80,
   -15, -35, -63, -26, -20, -46, -73, -76,
   76, -49, 7, -3, 0, -43, 9, -16,
   52, -15, -12, -50, 30, 7, 22, -42,
   -14, -128, -110, -20, -38, 74, 16, 27,
   78, 60, 83, -47, 54, -7, 3, -63,
   -128, 10, -31, -10, -17, -11, -99, -65,
   14, 12, -47, 79, -18, -21, 45, 61,
   36, -34, -17, 4, 7, -7, -122, 49,
   19, 36, -37, -73, 44, -31, 9, -24,
   -37, -23, -67, -5, -3, -49, -31, -54,
   41, -38, -128, 58, -52, 15, 44, 50,
   82, -3, 33, 45, -31, 4, 59, 40,
   -21, -10, 2, 28, 92, -8, 57, 98,
   65, 45, -69, 17, 12, 2, -27, 72,
   -51, 14, -13, 47, -5, 10, -30, -34,
   -68, 13, -44, 24, -15, -12, 25, 56,
   51, 9, -50, -34, 4, -44, -66, 69,
   -7, 25, -54, 54, 63, 20, -32, -49,
   -22, -56, -52, -44, -83, -21, 21, 50,
   -15, -60, -27, -35, -76, 0, 29, -15,
   31, -28, -5, 28, 88, 61, -36, -54,
   45, -39, -78, 34, 59, -83, 39, -20,
   21, 8, -45, 41, -63, 65, -23, -11,
   69, -19, -13, -4, -11, 73, -56, -48,
   82, 10, 41, -41, -60, -63, -47, -67,
   40, -54, -8, -127, 1, 4, -89, 62,
   7, -62, 25, -35, -45, -20, -1, -15,
   -27, 59, -7, 55, -41, -6, 8, -26,
   32, 3, 36, 44, -73, -14, 70, 59,
   -91, -22, 22, 4, -2, 9, 114, -10,
   -15, 113, 101, 8, 26, 3, 45, 19,
   60, -45, 78, -22, 31, 80, -46, 12,
   38, -10, -12, 12, 95, 40, 9, -32,
   -103, 11, -68, 72, 109, 127, 87, -23,
   30, -11, 127, 126, -8, 125, 104, -44,
   21, 77, -12, 0, 28, -64, -27, -3,
   44, 16, 12, -59, 79, 3, 61, 35,
   -25, 84, -22, -40, 51, -44, -92, -16,
   -1, -15, -45, 29, -53, 28, -64, 6,
   -126, -17, 33, -78, 33, -19, -28, -26,
   -62, -92, 66, -58, 66, 28, -40, -57,
   27, 36, 24, 66, -74, 49, -7, 38,
   18, -55, 71, 48, -35, -60, 3, 4,
   -4, -59, 90, -104, 25, 39, 59, -16,
   -54, -47, 35, -86, 74, -32, 68, -12,
   -1, 16, -27, 73, 6, -6, 8, -30,
   -12, -1, 102, 2, 22, -2, -12, 71
};

static const rnn_weight vad_gru_recurrent_weights[1728] = {
   -128, 119, 57, 61, 127, 64, 113, 79,
   87, -54, -127, 116, 41, 127, 89, 57,
   61, 10, 7, 116, 104, 79, 40, 54,
   -54, 21, -128, 31, -38, -85, -29, 52,
   29, -49, -18, 2, 19, 23, -53, -101,
   0, 57, 17, 127, -12, -48, 6, -33,
   127, 78, -61, 17, -101, -128, -99, 120,
   115, -108, 77, -128, 80, 92, 98, 61,
   -128, 85, -87, -75, 66, 54, -109, -73,
   -33, 5, 60, -2, 47, 9, 55, 5,
   32, 43, -45, 60, -19, 54, 80, 69,
   115, 50, 24, 85, 1, 13, 117, 26,
   -40, 8, 12, -19, 38, 60, 12, -15,
   -19, 59, -8, 28, 24, -39, 2, -24,
   26, 12, -53, 50, 19, -9, -39, -2,
   -45, -23, 37, -15, 23, -7, 104, -50,
   -22, 55, -31, -40, -53, 39, -46, 6,
   -12, 78, 42, 31, -27, -28, 12, -15,
   -17, 51, -1, 48, -128, 1, 31, -16,
   39, 22, 71, -37, 26, -78, 15, -8,
   -80, -17, 11, -3, -80, 10, 44, 15,
   57, 31, 21, 47, -19, 37, 10, 38,
   -37, 16, 18, -8, -4, -16, -40, -19,
   -43, -61, 38, -47, 54, -10, 24, -47,
   21, -76, 46, -17, 40, 75, 1, -25,
   -105, -5, -16, 55, -15, -27, -11, -41,
   103, -40, 98, 65, 18, -40, -11, 83,
   -61, 29, -10, -67, 20, -56, -1, 53,
   -83, -19, -45, 0, 6, 24, 0, -2,
   9, -25, 18, -18, 11, -28, -21, -12,
   -5, 41, -20, -18, 0, 4, 3, 18,
   15, 2, -63, -1, -36, 13, -28, -3,
   21, 20, -25, -67, -1, -23, -26, 9,
   -109, -8, -27, 1, -4, 48, 71, 1,
   -62, 53, -99, 74, 4, 17, -62, -1,
   62, 16, 35, 77, -78, 9, 26, 71,
   18, 113, 95, 124, 50, 100, 75, -16,
   90, 26, 2, 84, -12, 51, 113, 32,
   83, 32, -18, -25, -4, 52, 11, 28,
   -74, 17, -104, 37, -27, -76, -32, 21,
   29, -10, -21, -37, -42, -32, -30, 58,
   -7, -4, -97, 42, 17, 33, 70, 2,
   27, -75, -46, -76, 1, -27, -47, 14,
   15, 3, -13, -7, -43, -9, -59, -49,
   48, -50, -97, 4, -43, -65, 24, 34,
   21, -41, 33, 12, -56, 52, -29, 47,
   73, 24, 7, -25, 27, 11, -45, 74,
   -31, 18, -10, 17, -61, 34, 24, -43,
   39, 22, 21, 30, 14, -45, 8, -33,
   -25, -28, 28, 26, -25, -40, -14, 37,
   42, -73, 27, 30, 2, 18, 40, -77,
   -38, -63, -1, -22, 31, 45, 23, -49,
   -1, 44, -29, 8, -31, -24, -64, -56,
   32, -17, 21, 76, 11, 0, 19, 61,
   67, 55, 53, 65, -39, -60, -40, 35,
   -3, 87, 35, 54, -14, 31, -10, 28,
   11, 76, 74, -10, 56, 41, 54, -11,
   -17, -68, -7, -48, -5, -31, 2, -22,
   -51, 20, -32, -33, -24, 15, 67, 36,
   -30, -7, 41, 44, 22, -5, 64, 38,
   -15, -44, 14, -51, -16, 54, -57, -9,
   -37, -26, -16, 91, -4, -47, -13, -10,
   29, -28, 38, 47, -30, -49, 46, 82,
   -34, -30, 47, -95, -8, 3, 1, -82,
   -41, -44, 3, -50, 24, 12, -31, 2,
   -38, -41, -38, -39, 20, 10, -9, -4,
   54, 19, -4, -51, -5, -15, 58, 11,
   38, -27, -13, 53, -6, -30, -27, -62,
   -14, 42, -59, 17, 45, 49, -30, -48,
   -37, 9, -59, -2, -58, -50, -1, 23,
   2, -50, 81, 15, -23, -14, -15, 27,
   42, 45, 23, -46, 24, 46, 16, -54,
   -18, 3, 105, 65, 100, 30, 55, 49,
   -22, -28, -66, 52, 10, 48, 5, 53,
   70, 55, -49, 75, 126, 47, 18, 64,
   -9, -1, -45, -16, -50, 52, -17, -33,
   -2, 0, 28, 28, 6, 91, 45, 2,
   -24, -11, 4, 32, -31, -75, -25, 32,
   34, 1, -50, -26, -83, -38, -39, 127,
   64, -76, 55, -78, 71, 34, 21, 45,
   1, 70, -93, -20, 71, -3, -110, -40,
   54, -59, -39, -20, -54, -22, 25, 10,
   37, 45, 104, -5, -22, 13, -55, -18,
   -37, -23, 9, -42, -41, -8, 24, -13,
   6, 61, 4, 10, -63, -62, 8, 3,
   -12, -23, 52, 40, -20, -32, -15, -42,
   11, -26, -18, -1, 10, 71, 35, 12,
   -63, -16, 123, -51, 39, 94, 0, -44,
   -76, 71, -55, 55, -34, -32, -28, -35,
   -3, 24, 50, 28, -29, -44, 16, 31,
   -113, 46, 21, 41, 67, 37, 21, 7,
   -31, 6, -127, 20, 14, 76, 53, 43,
   24, 30, -26, 34, 68, 34, 71, 33,
   24, -46, -20, -28, 15, 45, -10, 52,
   127, 6, 11, 38, 18, 49, 59, -58,
   32, -21, 98, -32, -53, -20, 4, 23,
   65, 85, -87, 54, -127, -62, -103, 73,
   88, -51, 98, -128, 90, 69, 101, 45,
   -116, 106, -70, -51, 73, 84, -43, -70,
   66, -6, 19, 32, 29, -19, 21, 40,
   36, 80, 20, 44, -31, 54, -2, 13,
   -6, -1, 42, -25, -28, 14, -5, 37,
   -8, -36, -5, 20, -24, 45, 22, 21,
   -12, 13, -8, 0, -15, -15, -18, -2,
   16, -40, -2, -40, 69, 29, -1, -57,
   0, -7, -11, 8, 26, 34, -26, -33,
   50, 9, 8, -27, 31, -33, -27, 21,
   24, -24, 64, 42, -82, -17, -26, 7,
   -101, -128, -27, -75, -15, -77, -49, -31,
   -3, 43, -1, -128, -104, -128, -89, -128,
   -88, -106, -16, -16, -82, -60, -117, -128,
   23, -35, 15, 68, -6, 19, 11, -63,
   110, 9, 12, -1, 10, 21, 1, -43,
   -26, -37, 47, 28, 3, 42, 4, -94,
   32, -20, -1, 84, -57, -12, -61, 8,
   -29, -78, 61, -70, 98, 59, 45, 38,
   -60, 32, -115, -84, 80, 22, 11, -34,
   28, -77, -95, -26, -80, -75, -100, -24,
   -32, -45, 60, -111, -21, -3, -93, -33,
   -70, -87, -25, 31, -116, -58, 21, -1,
   65, 73, 42, 13, -14, 17, 36, 22,
   64, 14, 23, -4, -4, 21, -71, -15,
   -19, -16, -71, 73, -35, -27, 9, -19,
   16, 87, -26, 53, -25, -38, -26, 98,
   76, -11, -11, -53, 38, 21, 20, 33,
   -94, 48, 3, 0, 52, 2, -27, -57,
   -92, -31, -87, 3, 62, -28, -86, -95,
   -67, -7, -27, -33, -20, -91, -45, -19,
   -49, -56, -1, -34, 45, -1, -62, -12,
   -41, 7, 23, 54, 6, -25, -41, -72,
   79, 9, -48, 26, -43, 30, -50, -11,
   -62, 20, -72, -20, 0, -27, -66, -77,
   -3, 95, -76, 78, -102, -59, -82, 107,
   25, 61, 45, -118, 12, 17, 54, 52,
   -107, 117, -28, -35, 36, 18, -15, -54,
   -66, -79, 10, -88, -41, -19, -29, -93,
   -112, 26, -56, -22, -9, -101, -82, -81,
   -49, -28, -16, -2, 41, -104, -14, -59,
   -18, 44, 37, 18, -47, -45, -36, -39,
   -16, -5, -36, -26, -40, -7, 6, 29,
   -62, 21, -104, -18, 29, -11, -45, -30,
   60, 31, -54, 66, -40, -52, -9, -45,
   91, -12, 55, -69, 100, 33, 24, 33,
   -68, -3, 1, -22, -16, -2, -19, 4,
   34, 60, 24, 37, 15, -24, 56, 60,
   -23, -102, -5, 55, -11, 22, 22, 31,
   -25, 0, 97, 35, 19, 47, 61, 97,
   -28, 15, 13, 2, 9, -65, -20, 12,
   6, 27, -28, -30, -23, 50, 45, 33,
   26, -4, 12, 52, -39, -1, 28, 22,
   -22, -88, 34, -22, 11, -1, 55, -87,
   3, -17, -7, 34, 21, 9, -60, 41,
   39, -8, -1, 27, -14, -26, 18, -2,
   -60, 5, 31, -4, -58, 4, 22, -2,
   50, -26, -5, 37, 26, 43, 63, 38,
   99, -10, -14, -34, 27, 62, 54, 14,
   14, 4, -48, 39, -1, -20, -29, 2,
   48, -35, 11, 39, 18, 4, -28, -44,
   -18, 21, -10, 40, 1, -20, -55, 24,
   7, -9, -22, 83, -40, 19, -63, 5,
   51, -19, 5, -15, 79, 32, -61, 50,
   -14, -23, -48, -57, 29, 2, -31, -11,
   48, -5, 41, 22, -128, 15, 22, 37,
   -27, 13, 69, 33, 39, 82, 23, 7,
   10, 10, 0, 25, -90, -8, 14, 13,
   33, -19, 41, 19, 55, -12, 19, 25,
   -42, -65, -80, -105, -115, 12, -19, -46,
   60, 51, -42, -52, 85, 69, 32, 3,
   -42, -98, 69, -73, 86, 104, 98, -54,
   -106, 65, -55, 101, -43, -128, -85, -74,
   111, -50, 67, 85, -105, -109, 12, 79,
   78, 36, 113, 85, 8, 97, 28, 74,
   127, 71, -71, 27, 80, 50, 127, 33,
   38, 92, 89, 112, 127, 76, 36, 107,
   -46, 10, -23, -57, 12, 49, -11, 28,
   -43, -17, -16, -4, 10, -6, 53, -35,
   67, -1, 22, 55, 39, -11, -42, 42,
   6, -46, 83, -30, 67, 2, 62, 1,
   -56, 40, 2, 108, -10, -88, -103, -63,
   35, -46, -10, 49, -65, -17, 21, 48,
   -125, -128, -128, -114, -29, -128, -128, -128,
   -127, 63, 127, -128, -63, -128, -128, -110,
   -128, -108, -87, -45, -33, -128, -93, -124,
   11, -30, 64, -10, 21, 28, 6, -10,
   40, 73, 61, 12, 70, 51, -13, -12,
   -21, -28, 40, -23, -49, 62, -15, -90,
   -21, -29, 36, 36, 52, -11, 29, 38,
   -21, 26, 33, 57, 15, 2, 51, 14,
   40, -32, -15, -30, -17, -32, -7, 31,
   -30, 69, 55, -1, 71, 4, 52, 5,
   42, -30, -123, 115, 26, -9, -20, 3,
   11, 33, -5, -38, 45, -14, 13, 8,
   -93, 95, -1, -79, 58, -5, 20, -68,
   28, -7, -30, -29, 19, 49, 4, 34,
   -3, 2, -89, -4, 12, 3, -39, -12,
   19, 95, -14, 94, -22, 25, -14, 47,
   77, 51, -30, -43, -78, 47, 11, 75,
   -59, 24, 1, -55, 90, 53, 46, -31,
   112, 68, 16, 99, -15, 13, 12, 76,
   32, 48, 0, 5, 22, -5, -49, 26,
   -11, 49, 39, 22, 34, -27, 63, -38,
   -59, -45, 82, -36, -7, 34, 5, -24,
   55, 1, -24, -26, 91, 50, 6, -24,
   4, -17, 75, -34, -17, 66, 21, 31,
   -39, 17, 13, 13, 39, -43, 92, -79,
   -38, 20, -34, 48, 32, -45, -17, -62,
   65, -13, 97, 38, -18, -16, 46, 45,
   23, 15, 55, 32, -2, 54, 10, 43,
   33, 52, 19, 27, -31, 32, 75, 8,
   -1, -11, 21, -4, -1, -13, -2, -3,
   45, -30, 38, 34, -27, -20, -5, 25,
   -30, 57, -7, 29, -37, 57, 77, -17,
   -11, 17, 127, 61, -15, 61, 61, -26,
   -13, 35, -27, -21, 53, 24, 29, -20,
   -40, 17, -53, 38, -6, -19, -4, 27,
   23, -30, 50, 95, 19, 9, 55, -12
};

static const rnn_weight vad_gru_bias[72] = {
   -34, -123, -128, -67, -113, -82, -127, -60,
   -85, 44, 108, -128, -81, -128, -117, -125,
   -128, -120, -31, -32, -103, -127, -72, -121,
   101, 1, 43, 13, 27, 32, 44, 20,
   37, 26, 82, 4, 65, 62, 59, 0,
   12, -20, 127, -41, -2, 60, 46, -15,
   11, -31, 9, -16, -18, 5, -11, -7,
   -23, 7, 8, 7, 85, 9, 1, 8,
   -3, -13, -20, -56, 68, -8, -4, 7
};

static const GRULayer vad_gru = {
   vad_gru_bias,
   vad_gru_weights,
   vad_gru_recurrent_weights,
   24, 24.0, ACTIVATION_TANH
};

static const rnn_weight noise_gru_weights[12960] = {
   -61, 10, -2, 12, -30, -35, -3, -14,
   -35, -8, -29, 39, 19, -6, -57, 40,
   -25, -44, -13, -9, 15, 33, 10, -29,
   -31, -48, -11, 17, 32, 47, -37, -19,
   9, 17, -16, 52, 3, 13, 12, 12,
   -48, 60, 16, -6, -7, -11, 34, -16,
   -25, 22, -5, 39, 41, 35, -34, 2,
   -30, 65, 19, -35, -46, 3, -13, -18,
   -26, 8, 19, 27, -16, 15, -25, 38,
   -12, -9, -1, -28, -5, 31, -20, -36,
   -10, -18, 28, -35, 4, 0, -14, -25,
   22, -11, 42, 18, 34, -1, -78, -2,
   5, -23, -41, -30, -20, -26, -7, -4,
   13, -7, -1, -2, 2, 3, 31, -29,
   -26, 32, -8, 33, 26, 4, -19, 0,
   10, -41, -21, -29, 39, -20, -13, -12,
   -4, 13, 15, -10, -22, 24, 6, 13,
   3, -14, 22, -33, 24, -7, -4, -34,
   22, -7, -28, -32, -14, 19, -23, -34,
   -11, 18, 16, 55, -26, -15, 8, 10,
   -15, 17, 29, -40, 30, -56, -60, -15,
   18, -55, -37, -3, -33, 57, 4, -11,
   0, -8, 20, 13, -36, 24, -15, 0,
   15, 32, -33, 81, -10, 13, -28, 22,
   -5, 19, -4, 11, 19, 28, -5, -37,
   -40, 37, 39, 9, -8, -10, 42, -47,
   5, 8, 17, 4, -8, 20, -33, -8,
   13, 16, 14, 6, 35, -47, 39, 33,
   -28, 16, -11, -50, 25, -7, 51, -60,
   15, 40, -39, 0, 29, 10, -46, 37,
   34, -6, -16, 12, -24, 10, 20, 28,
   -3, 40, 18, 0, -35, 19, -24, 2,
   35, -15, -5, 42, 11, 19, 24, 18,
   3, -10, 17, -37, 18, -1, 50, 2,
   -7, 36, -44, -36, -36, -27, 22, 23,
   -25, 23, -3, -17, 3, 18, -19, -32,
   24, -15, -24, 14, -14, -18, -56, 45,
   -8, -42, 23, 24, -16, -35, 26, 19,
   -22, -24, 14, -46, 2, -11, 7, 24,
   -42, -34, -40, 37, 1, 12, -23, -30,
   -1, 2, 5, 5, 10, -38, -7, -28,
   5, 36, -37, -52, 9, 55, 15, 20,
   -24, 0, 10, -5, 1, -45, -41, 3,
   -3, -26, -43, -61, -9, 23, -26, 42,
   -2, -33, 26, -7, -17, 40, -42, -41,
   21, -38, -46, 53, -21, -8, -6, -17,
   -12, 6, 3, 4, -21, -37, 12, -44,
   -9, 39, 17, -8, -38, 30, 20, 6,
   -10, 20, -22, -15, -16, 19, -19, 1,
   -25, -17, 14, 8, -19, 20, 11, 39,
   -4, 36, -33, 15, 15, 17, -4, -18,
   -2, -13, -14, -1, -12, 41, -17, -29,
   -21, -24, 29, 43, 27, -20, -21, 4,
   -15, -26, 9, 0, -15, 14, -17, -27,
   15, -24, -49, 4, 33, 7, -41, -13,
   49, 52, 2, 2, 28, 16, 46, -16,
   0, -26, -39, -27, 1, -36, 11, -17,
   66, 38, 26, 28, 30, -11, 27, -41,
   -28, -35, -4, 4, 8, 15, -13, 62,
   -26, -10, 15, 51, 2, -39, -36, -30,
   5, 18, -36, 23, 47, 27, -26, 45,
   -31, 34, 23, -57, 17, 4, 50, -7,
   -25, -34, -30, -25, -18, 46, 5, -19,
   -49, 3, 19, 24, -21, -3, 44, 6,
   -22, -23, -42, 24, -30, -7, -9, -31,
   0, 37, 0, 19, -16, 7, 33, -3,
   -36, -6, 17, 34, -26, -5, 27, 35,
   -36, 67, -9, 13, -60, -6, 54, -17,
   -34, -11, -31, -13, -3, -46, 43, -4,
   30, 29, 38, 33, 1, -21, 11, 14,
   -17, -23, -9, -16, 4, -24, 33, 33,
   -8, -1, 31, 35, -24, -35, -11, 25,
   -33, 16, 23, 13, 19, -19, 13, -16,
   51, 29, 37, 39, -35, -34, -2, -35,
   -49, 63, 10, 54, -23, -29, -31, -49,
   6, 9, -6, -6, -45, 29, 13, 20,
   11, -29, -42, 21, -18, -31, -18, 11,
   -25, -54, 60, 52, 31, 2, 21, 17,
   26, 11, -12, -12, -12, 0, -5, 7,
   -27, 35, -5, -3, -35, -6, -22, 7,
   23, 27, -11, 16, -36, -3, 19, -17,
   5, 2, 62, -19, -21, 1, 17, 13,
   -5, -7, 28, -42, 5, 17, 38, -8,
   -9, -29, -11, 34, 7, 40, -15, 42,
   10, -37, -23, 4, 29, 1, 20, 5,
   35, 58, 18, -36, 14, -11, 10, -15,
   -2, -9, -10, -37, -36, 23, 27, 39,
   -37, -12, 11, -6, 33, 10, 34, 25,
   -7, 24, 2, -21, -2, -13, 1, 39,
   -25, -28, 33, 20, 29, -27, -48, -15,
   18, 35, 6, -40, -29, 9, 5, -2,
   -91, -27, -14, -12, 49, 25, -41, -33,
   22, -8, 5, -4, -20, 46, 31, -8,
   22, 22, -13, 9, 14, -61, -34, 20,
   28, 26, 18, -30, -11, -27, -31, -20,
   3, -20, 45, 29, -34, 35, 42, 52,
   -37, -9, 20, 1, 31, 3, 46, 40,
   -20, -41, 16, -7, 47, -24, -24, 7,
   -26, -25, 0, 24, 19, 20, 34, 19,
   27, -8, 3, 22, -23, -20, 10, 7,
   -18, -32, 36, 11, 16, -5, -30, -5,
   -37, -31, -22, 9, 23, -31, 10, -26,
   20, -12, 44, 19, -20, 30, -25, -19,
   -5, -9, -12, -37, -22, 23, 21, -1,
   25, 32, 1, -16, -24, 41, 15, -12,
   10, -19, 7, 30, -11, 7, 14, 9,
   -35, -10, -13, 5, -7, 42, -5, -22,
   24, -35, -4, 34, 18, -22, -33, 16,
   40, 40, -15, -15, 19, -10, 9, -15,
   2, 14, -3, 19, 19, 5, -16, 23,
   -8, -34, -8, 38, -36, 23, 58, 26,
   -21, 47, 34, 36, 6, 18, 38, -10,
   -40, -30, -75, -1, 8, -14, 11, 14,
   -27, -28, 17, -10, -32, 40, -36, 4,
   -4, -19, 46, -19, 6, 9, -7, 37,
   51, -22, 5, -18, 32, 6, -10, -24,
   -30, -19, 17, 19, 19, 0, -17, -24,
   23, 2, 50, -15, -24, -19, -35, 10,
   -29, -13, -14, 1, -3, -8, 4, 36,
   25, -6, -10, -17, -47, 4, 15, -36,
   26, -15, 9, -31, 9, 35, 2, -47,
   25, -15, 30, -41, 27, 6, -33, 6,
   14, 17, -22, -47, 32, -34, -22, 4,
   7, 13, -25, -12, 0, 8, -3, 3,
   4, -44, -21, -4, -19, 28, -40, 35,
   0, 44, 4, -19, -14, -13, 18, 21,
   2, -28, -26, -22, 27, -8, -6, 22,
   -20, 45, -18, 25, 10, 11, -57, -50,
   -39, -22, -52, 40, -40, -22, -17, 13,
   28, 4, 24, -20, -18, -5, 3, 7,
   -6, -1, 5, -41, -37, -57, -32, -17,
   16, 32, 32, 58, 27, -27, 53, 15,
   -37, -27, 62, -35, -11, -8, -42, 37,
   17, -9, -20, 4, 16, 13, 30, 31,
   23, 21, -44, 23, 3, 36, -88, 9,
   24, 31, 22, -15, 20, -31, 10, 2,
   23, -2, -48, -19, 53, -1, 10, -41,
   15, 26, -6, -6, 20, 33, -4, -21,
   -36, -37, 36, 28, -16, 32, -29, -24,
   -16, -37, -24, 29, 0, -23, 30, 5,
   -5, -11, -1, -40, -31, -39, 31, -33,
   -38, 32, -8, 1, -17, 0, -7, -51,
   23, -18, 5, 16, -30, -25, 13, 11,
   -2, -7, 11, 12, -23, 13, 19, 54,
   -30, 3, 37, -37, -2, 20, 36, -29,
   25, -29, 1, -94, -57, -4, -19, 18,
   -41, -2, 17, -68, 13, -3, 40, -20,
   -27, 33, 25, 8, -4, -5, -31, -23,
   56, 0, -30, 24, -13, 3, 39, -64,
   46, -37, 49, 5, -11, -7, -19, -23,
   -34, 19, -4, 2, -55, 39, 43, -37,
   7, 32, 27, -37, -32, -11, -10, -7,
   -24, 44, -6, -17, 22, 13, 23, -38,
   -27, -24, -36, -36, 7, -30, 63, 16,
   39, -24, 58, 40, 4, 19, 7, 29,
   -28, 27, 29, 68, 14, -33, 14, 3,
   13, -2, 26, -11, 36, 37, -25, -49,
   -12, 17, 28, -35, 34, -5, -11, -5,
   -17, 4, -4, 18, -17, 26, -53, 43,
   -44, -4, 14, 14, -44, -9, -73, 3,
   13, 24, 16, -7, -29, -13, 18, -20,
   18, -26, -16, 28, 36, 8, 17, -28,
   41, -21, 39, 6, 25, -2, -6, 3,
   23, -8, -2, 30, 17, -9, 24, -20,
   -24, -19, 6, 30, -5, -32, 46, 29,
   -42, 30, 17, 3, 21, -27, 27, -38,
   -25, 24, 48, 11, 8, -14, -28, -33,
   -17, -25, 31, -62, -21, 0, 14, 20,
   -17, -14, -14, -16, 54, -5, 27, -9,
   -5, 34, -2, -19, 35, 3, 16, -21,
   -33, 46, -23, -26, 10, 13, 0, 8,
   -30, 20, 3, 20, -28, 38, 30, -22,
   39, 11, -29, 9, 29, -31, -31, -30,
   -11, -25, 3, 35, -24, 1, -1, -1,
   11, 38, -8, -28, 11, 17, -2, 31,
   34, -21, 32, 14, 36, -18, 4, -16,
   27, -24, -16, 11, 16, 11, -8, -13,
   -2, 12, 6, 40, 8, -29, -11, 12,
   -27, -13, -41, -21, -31, -17, 38, -41,
   -2, -36, -33, 19, 23, 19, 13, 28,
   -20, -6, 1, 14, -20, 22, 44, -1,
   67, 10, -19, -6, -3, -59, 30, 23,
   -24, 3, 9, 19, -34, -18, -69, -17,
   25, 16, -8, 54, -32, 9, 28, -10,
   -37, 12, -2, 17, 25, 2, -17, -12,
   -1, 8, -49, -3, -18, -17, -10, 22,
   -22, -27, 6, 6, 10, -68, 17, -23,
   -19, 42, 8, -38, -68, 12, -27, -6,
   5, -52, 33, 12, 6, 27, -23, -3,
   -33, -27, 11, 33, 29, -25, -2, -14,
   13, 44, -7, -22, -5, -10, 46, -23,
   30, -8, -11, 18, -40, 3, -35, -16,
   11, -1, 3, -12, -23, 24, -10, -11,
   -20, 16, 36, 9, -35, 35, 31, -32,
   25, 9, -34, 20, -21, -43, 4, -2,
   28, -25, 12, -8, 34, 10, 10, -3,
   2, -17, -3, -35, 28, -29, 12, 40,
   5, 18, 6, -9, -17, 18, -11, -2,
   -10, 15, -50, 10, -19, -8, 16, -16,
   51, 28, -19, -18, -35, -29, 10, 12,
   -13, 18, 23, 0, 21, -42, -22, -29,
   25, -19, -24, -16, 16, 26, 27, 16,
   -8, -16, 29, 19, -15, 21, -37, 16,
   -14, 4, 62, 56, 2, -23, 23, -41,
   40, 36, 15, 63, -1, -42, -22, 7,
   20, 39, 40, 10, -31, -12, 4, -19,
   9, 8, 40, -5, 26, 14, -26, 18,
   35, 20, 21, -5, -46, -40, 48, 26,
   -34, 1, -59, -22, 4, 29, 50, -28,
   28, 43, 34, -5, 11, -32, 11, 50,
   -35, -33, 20, 30, -19, -53, 35, -6,
   -11, -12, -25, -1, -1, -16, 11, -12,
   -29, -24, 21, -34, -16, -17, -8, 32,
   20, -17, -24, -14, -11, 6, 0, 4,
   31, 56, -19, -24, -21, -37, -1, -21,
   -23, 12, -22, 1, 27, 28, 71, 33,
   25, -13, 22, 27, 31, -31, 8, -14,
   -39, 13, -26, 28, 22, -17, -18, -1,
   -11, 16, 6, -6, 11, 23, -22, 22,
   -20, -36, 25, -54, -51, -14, 21, -27,
   6, 20, -6, -5, -28, -15, 12, -32,
   -24, 34, 9, 5, 22, 2, 21, -37,
   -4, 14, -46, 4, 6, -7, -30, 34,
   -4, -11, -22, -23, -18, -22, -24, -44,
   -28, -26, 25, -53, 39, -60, 25, -1,
   22, 2, -23, 19, 15, 18, 31, -1,
   57, 27, -18, 33, -2, 24, -57, 10,
   20, 51, 8, 23, 11, -27, 21, 1,
   -3, -20, -36, -12, -5, -17, 2, -27,
   3, 32, -40, -33, 28, 25, -24, 10,
   -23, -13, 30, 8, 21, -17, -32, 34,
   -30, 28, -15, -31, -14, -10, 23, 37,
   13, 11, -13, 14, 19, 48, 9, -40,
   -40, -2, -37, -21, 4, 11, 4, 39,
   -13, -9, 40, 11, -24, 6, -5, 42,
   -8, -31, -3, 0, -28, 6, -39, 2,
   29, 20, 36, 44, 30, -15, 14, 33,
   -1, 2, -30, -7, 17, -41, 19, 24,
   19, -16, 1, -6, 21, -3, -25, 8,
   4, -17, 34, -20, -32, 26, 13, 13,
   -21, -36, 36, 46, -12, 9, 28, 29,
   9, -4, 1, 10, 8, -40, 17, -15,
   4, 15, -10, -48, 21, -13, -32, 16,
   -11, -4, -48, -44, -3, 12, 10, -18,
   14, -24, -14, 27, 21, -4, -43, 36,
   -26, 6, 25, 29, 13, -8, 31, 24,
   -31, -3, 27, -2, -19, -19, 22, 41,
   36, -32, 24, -31, 39, 7, -14, 23,
   -9, -18, 1, -37, 21, 23, -32, -27,
   -22, -13, -15, -11, -28, -10, -39, 33,
   -33, 31, -15, 12, 4, -18, 18, -16,
   15, 6, 4, 1, 7, 23, 21, -4,
   -19, 25, -68, 22, 17, 48, 17, 29,
   14, 0, 16, 17, 75, -4, -17, -49,
   7, 1, -9, -60, 55, 17, 28, 87,
   -32, 75, -30, -15, -22, -7, -11, -20,
   -20, -31, -71, -32, 33, 2, 16, -5,
   -65, 52, -21, -33, 3, 64, -28, -35,
   29, 6, 30, -71, -56, -4, 55, -58,
   -26, 13, -40, 28, -26, 11, -44, 8,
   -10, -30, -43, 34, 1, 49, -2, -21,
   39, -75, 51, -21, 65, -7, 4, 40,
   39, 81, 36, 5, -51, -25, 8, -42,
   -17, 26, -15, 69, -18, 8, -18, -46,
   44, 23, 5, 18, 4, -34, 8, 9,
   -15, -45, -2, 23, 17, -5, -50, -65,
   -15, -4, 32, -22, -56, 32, 49, -10,
   -3, 0, 2, -34, 3, -33, -42, -16,
   -10, -26, 9, -2, 24, -5, 45, -8,
   -13, -29, 35, -6, 18, -17, 30, -41,
   8, -50, -7, 28, -17, -40, 64, 17,
   -2, 15, 16, 10, 26, 4, 39, 38,
   4, 12, -40, 24, 6, -23, 23, 24,
   -18, -10, -27, 28, 64, -20, -10, -27,
   11, 16, -2, -1, -28, 12, -34, -2,
   10, -22, -25, -24, 20, -41, 55, 36,
   6, 16, -1, 40, -67, -27, -26, -8,
   9, -12, -32, -29, 10, -14, 42, -43,
   -13, 9, 45, -1, -9, 6, -4, -34,
   31, -43, -37, -22, -66, 29, 22, 38,
   -7, 2, 16, -23, -11, 25, 30, -4,
   -20, 12, -19, -29, -30, -33, 10, 10,
   26, -23, -30, 41, 7, 6, -19, -25,
   -19, -1, -17, 44, 19, -15, 43, -14,
   -32, -22, -9, -22, 36, 12, 17, 39,
   17, 29, -33, 0, -44, -14, -11, 19,
   -22, 25, -18, 4, -40, 18, 42, 5,
   32, 6, 4, -2, 7, -33, -33, -21,
   42, -33, -10, 32, -6, -28, 12, -28,
   38, -24, -15, -25, -1, 12, -28, 36,
   22, 23, 25, 17, -24, 7, 7, 13,
   19, 7, -15, 4, -51, -34, -39, -18,
   62, -33, -34, 8, -10, 22, 25, 42,
   49, -8, 56, 0, -18, 25, 19, 6,
   5, -15, 32, 29, 29, 5, 18, 20,
   26, 28, -18, 30, -3, 43, 36, -4,
   16, 30, -1, -48, -16, -39, -8, -7,
   33, 27, 20, -6, 29, 56, 19, -29,
   20, 23, -4, -11, -13, -29, 3, 50,
   -19, 14, 23, 1, 61, -19, -23, 16,
   26, 13, 21, 10, -9, -5, 13, 2,
   0, 7, 35, -32, 3, 47, -5, -26,
   0, -24, -7, 17, -20, 21, 18, -18,
   -26, -17, 4, 27, 22, -39, 19, 8,
   -38, 21, 4, -46, 8, 24, 36, -43,
   22, -8, -9, 9, 13, 14, 29, 0,
   38, 8, 28, -6, -9, -28, -15, 6,
   40, -10, -1, -26, 20, -13, -23, 20,
   7, -4, 37, 10, 19, 8, 49, 2,
   7, -21, -43, 13, 2, -11, -26, -15,
   47, -49, -17, 7, -41, 23, 26, -1,
   -1, 15, 39, -31, -6, -45, 15, 9,
   38, -32, -12, 18, -16, 11, -10, 20,
   -18, 31, 5, 28, 4, -40, 14, 14,
   21, 20, 8, -27, -8, 25, -16, -23,
   31, 19, -54, 8, -58, 29, 49, 12,
   57, 12, 8, 27, 50, 25, 63, 33,
   -2, 32, 13, -12, -10, -59, -4, -42,
   1, 2, 21, -22, -2, 48, -41, 19,
   -6, -20, 18, -24, 27, 37, -19, 24,
   37, -42, -7, -58, 12, -8, 10, -15,
   -35, -5, 0, 1, 9, -14, -42, -7,
   26, -15, -30, 4, -20, -5, -35, 0,
   18, -22, -40, 36, -29, 30, 10, 27,
   11, -10, -26, -42, -3, 1, -48, -9,
   2, -10, -7, 51, -8, 52, -2, 13,
   23, 20, -10, 37, 9, -13, 13, 27,
   13, 12, -39, -2, 16, -1, -26, -39,
   -22, -15, 76, 15, 11, 4, 23, 14,
   7, -15, 15, 4, -4, -32, 38, 2,
   20, 28, -16, 20, -28, 45, -9, -19,
   7, 3, 21, 39, -29, 14, 14, -11,
   -16, -29, 46, 32, 10, 0, 28, -12,
   23, -26, -4, 6, -34, -32, 27, -9,
   10, 10, 4, -15, 33, 2, 3, -12,
   -2, 1, -3, -20, -9, -33, 29, 60,
   45, 20, 37, -20, -13, -19, -47, -4,
   -10, 54, 4, -16, 8, -6, 0, 13,
   20, 28, 37, 7, -36, -35, 39, 8,
   36, 27, 11, 2, 25, -9, 2, -35,
   35, 28, 14, 3, 21, -44, -25, 29,
   -29, -6, -5, 19, 5, 39, -25, 23,
   15, 17, 11, -46, 20, 12, 27, -18,
   -22, 44, 39, -52, -48, -7, -3, -2,
   11, 5, 45, -27, -33, -37, -34, 11,
   -33, -31, 22, -20, 6, 47, 14, -58,
   14, -47, 6, 51, 14, -37, -18, 10,
   18, 43, 6, 76, 8, 45, 13, -64,
   -27, -6, 27, -23, 76, 57, -33, -62,
   17, -13, 22, -2, -43, 20, -30, -14,
   14, -27, 3, 3, -9, 8, 24, -38,
   -12, 16, 23, 14, 14, -35, 41, 32,
   -4, -28, -21, 43, -21, 84, 27, -35,
   52, 32, 8, 30, 96, -47, -29, -43,
   46, -13, -9, 35, 42, 15, -2, 19,
   37, -22, -35, 26, 41, 36, -46, 6,
   38, 24, 11, -13, 24, 28, 3, 39,
   -25, -36, 3, -25, 27, -22, -12, -30,
   55, -25, -30, 11, -29, 22, -31, 13,
   44, -12, 75, -47, 0, 21, 10, 20,
   34, -32, -15, 18, -17, 26, 65, 53,
   -22, -23, 66, 7, 12, 28, -27, 40,
   -4, -40, 48, -19, 11, -29, 37, 12,
   15, 30, -52, -9, -37, 26, 28, -2,
   1, 9, 37, -5, -1, 29, -32, -2,
   3, -13, -39, -23, -19, 0, 32, -27,
   13, 16, 18, -2, -12, -64, 0, -17,
   3, 16, 34, -35, -33, -25, -16, 17,
   16, 28, 33, -43, -24, 5, 55, 40,
   31, -36, -5, 9, 3, 58, -19, 15,
   19, 34, 3, -12, -37, -1, 49, -19,
   15, 14, 11, 27, 11, -26, -17, -21,
   -25, -23, -7, 1, 11, 7, 39, -4,
   -8, 8, 33, 5, -1, 25, 4, -37,
   -31, -43, -6, -4, -34, 8, 17, 33,
   34, 1, 2, -41, -12, -22, 20, -19,
   -10, 16, -18, -5, 4, -3, -10, 11,
   -24, 16, -9, -5, -35, -24, 7, -6,
   -61, -39, -79, 1, 8, -11, -44, 33,
   -19, 16, 13, 14, -1, -42, -30, -1,
   -20, 6, -58, 6, -53, -8, 44, -24,
   -17, 48, 19, 59, -38, 30, 26, 0,
   -35, -7, 24, -21, 32, -43, 8, -22,
   5, -19, 26, -24, 37, 32, 32, 5,
   -3, 16, 27, -6, -13, 27, -15, 29,
   -54, -10, 17, 55, -27, -20, -26, -5,
   3, -40, 3, -56, 9, 76, -27, -37,
   -35, -16, 10, 40, -7, 10, 22, 24,
   8, 4, -35, -23, -51, -29, 80, -17,
   29, -74, 38, -6, 27, 20, 27, -8,
   -16, 2, 3, 15, 21, -39, -31, 44,
   -41, -2, -23, -19, 14, 13, 39, -5,
   -16, -12, -33, -33, -26, 29, 51, -24,
   16, 16, -18, -34, 35, -23, 11, -4,
   4, 21, -16, -29, 37, 29, 6, 55,
   -6, -42, 77, -40, 11, -20, 48, 36,
   -18, -29, -97, 29, 32, -30, -16, -54,
   -18, 21, 52, 0, -23, 33, -29, -13,
   29, 35, -1, 50, 32, 15, 16, -19,
   6, 26, 1, 39, 19, 28, 4, 14,
   -28, 6, 26, 24, -23, 11, -48, -2,
   -7, 15, 47, -11, 14, 2, -20, -8,
   -16, 1, -22, -16, 51, 4, 27, 40,
   -6, 18, 3, 18, 13, -29, 54, -52,
   -8, 37, 28, -17, 19, -66, 20, -7,
   -37, 47, -16, 13, 10, 48, 18, -31,
   -27, 15, 12, 24, 15, -29, -1, -8,
   -21, 9, 2, 34, -31, 18, 29, -27,
   -2, 42, -10, 10, -8, 23, -3, 21,
   51, -4, 13, 34, -12, 23, -36, 9,
   -7, 17, 41, -10, 14, -29, 1, -23,
   52, -39, -44, 10, 12, 35, -24, -46,
   29, -21, -34, 12, 23, 28, -10, -45,
   20, -32, -42, -17, -26, -9, 6, -26,
   23, -14, -45, -3, 17, 13, -40, 36,
   42, -26, -7, -29, -10, 41, 14, 10,
   -11, -22, 12, -8, -52, 17, -48, 19,
   18, 44, -2, 19, -34, 44, -17, -23,
   -32, -4, -31, 18, -37, 6, 26, 26,
   4, 29, -10, 6, 18, 0, 14, 15,
   33, -11, -43, 7, -52, -32, 17, -24,
   17, -10, -25, 22, -44, -21, 16, 2,
   -29, -15, -31, -27, 4, 47, -3, -45,
   -41, 17, -22, -6, -35, 10, -1, 18,
   -32, 50, 47, -42, -26, 1, 42, -47,
   -10, -40, -4, -28, -36, 1, 15, -1,
   -38, 36, -5, 11, 0, 21, 7, -3,
   -44, -4, 11, -27, 20, 10, -1, -19,
   44, -13, 24, 40, -46, 28, 21, -39,
   -20, 30, 30, -2, 25, 16, 8, 40,
   -9, -38, 18, -4, -31, -15, 1, 22,
   -41, 24, 43, -13, -10, 38, 2, 8,
   -14, 12, -16, -17, -7, -33, -30, -2,
   -5, 0, -13, -46, 36, 1, -24, -25,
   23, -56, 13, 42, 12, 35, 59, 44,
   29, -14, 7, 32, -50, -31, -10, -15,
   43, 28, 8, 23, -11, 41, -12, -18,
   -55, -9, -27, -18, -6, -6, 75, -17,
   43, -34, 8, 10, 33, -10, 43, -30,
   12, 52, 41, 20, -21, -17, -3, -55,
   -45, 72, 44, 39, -34, 26, 13, -11,
   -22, -20, 14, -31, -10, -19, 31, 33,
   30, -33, -21, 14, -18, 12, 26, -7,
   40, -11, 13, 1, 53, -4, 15, -39,
   35, 35, 7, -6, -14, -9, -17, -11,
   11, -3, -7, -30, -16, 1, -6, 0,
   -23, 42, -10, -27, 36, -39, -16, 44,
   3, -5, 9, -7, 11, 24, -24, 40,
   -28, -22, -18, 41, 20, -23, -26, -17,
   -22, -7, -13, 3, 8, 18, -28, 21,
   21, -26, 4, -14, 8, -16, 32, -21,
   -40, -1, -18, 0, 9, 5, 5, 13,
   -11, 6, 12, 41, 40, -19, 35, -22,
   1, 14, 55, -4, 6, 1, -33, 10,
   6, -26, 23, 5, 14, -25, 30, -46,
   -17, -29, 18, 5, -33, 22, -28, -13,
   -10, -22, 39, 47, 14, 24, -15, 11,
   -7, 29, -39, -20, 13, -8, -9, 8,
   -13, 54, 34, -33, -47, 10, -10, -46,
   9, -1, -20, 35, -10, -2, -44, -29,
   -9, -17, 3, 40, 38, -10, 20, -10,
   -24, -43, 37, -23, 8, 10, -4, -24,
   9, -5, -29, -32, 20, 36, -2, 19,
   -8, 3, -36, -11, -28, -52, -8, 23,
   -36, 3, 3, -43, 7, -19, -35, -15,
   11, 4, -32, -23, -37, -36, 34, 37,
   -5, 24, -13, -17, 1, 14, -34, 4,
   0, -8, -4, 38, -9, 1, -13, -39,
   25, -24, -22, -25, 28, 5, 23, 29,
   -2, 8, -26, 46, 15, 28, 17, 38,
   -25, -35, -63, 45, 43, 39, -4, 23,
   -15, 12, -43, 19, -3, 34, 2, -25,
   26, -26, 36, -11, 12, 11, -23, 2,
   12, -25, -45, -25, 14, -49, 13, 49,
   -3, 26, 6, -56, -42, -8, 7, 17,
   -35, 0, 40, 0, -34, -2, -4, -15,
   27, 0, -1, -13, 23, 42, -24, 10,
   28, -12, 41, -16, 4, -22, -13, -17,
   -25, 47, 24, -10, -7, -6, 51, -41,
   -26, -4, -27, -17, -48, -28, 28, 9,
   -1, 24, 26, 32, 2, 14, 37, -41,
   -8, -2, -24, 8, -17, 30, 19, 20,
   -11, 50, -12, 35, -25, -32, 18, 9,
   6, -39, -24, 18, -25, -46, 16, 11,
   -30, 43, -7, 36, 39, -21, 4, 9,
   -28, 30, -1, 29, 6, 34, 24, -10,
   -28, -43, 32, -4, 29, 35, 28, 0,
   46, 23, -34, -3, 32, -38, 33, -36,
   20, 6, -4, -11, 19, 37, 21, -17,
   35, 23, 10, -25, 27, -28, 30, 3,
   -16, 43, 24, -14, -13, 1, 13, 25,
   29, 28, 1, 3, -21, 12, -18, 0,
   -39, -16, 46, 3, 22, -16, 14, 36,
   -26, -11, -22, 28, 33, 4, 15, 8,
   7, 21, -25, 13, -25, -35, 12, -31,
   50, 4, -14, 12, 24, 51, -17, -15,
   14, 6, 13, 20, -40, 11, 7, 66,
   38, -18, -19, -40, 24, -14, -26, -20,
   40, -31, -12, 4, 19, 10, 14, -35,
   24, -30, 21, 0, 7, -31, 25, -39,
   27, -8, 8, 8, 13, 20, 15, -3,
   24, -7, -21, -36, -11, -33, -25, -10,
   -5, -2, -12, 1, -16, -20, 18, -1,
   -15, -27, -8, 6, -17, -31, -11, -31,
   -2, -25, -36, 2, 30, -55, -23, 26,
   -16, 0, 33, -33, -7, -9, -12, 44,
   -54, 1, 26, 36, 48, 7, -10, -2,
   30, 14, -34, -31, 65, 25, -6, -30,
   5, 23, 48, 2, 13, 10, -16, 20,
   -7, -12, 2, -25, 3, -24, -13, -4,
   -39, -38, 8, 29, 15, -33, 5, 34,
   -42, 22, 40, -11, 24, 0, 33, -21,
   -40, -17, -21, 37, 32, -30, -15, -29,
   5, 3, 33, 33, 38, 12, -33, 18,
   9, -13, -22, 33, 16, 52, 19, 14,
   24, -33, -2, 27, 10, -34, 14, 7,
   18, -14, -44, 36, -9, 17, -21, -39,
   -32, 24, 4, -31, -49, -9, -16, -21,
   -42, 23, -29, -5, 18, -19, 8, 38,
   4, -6, 0, 33, -2, 7, 41, 14,
   39, 21, 23, 31, 40, 18, -7, -18,
   19, 9, 5, -17, -30, -33, -31, 24,
   -4, 21, 38, 15, 3, -3, -19, 9,
   21, -34, -40, -3, -18, -25, 19, -26,
   2, -48, -27, 7, -29, 22, 7, -6,
   29, -39, 25, -62, -13, -2, 17, 8,
   -22, -22, -40, -31, -8, -28, 32, -14,
   15, 38, -19, -37, -14, -8, 0, -4,
   -6, -3, 11, 23, -31, 10, -41, -16,
   -35, -44, 1, -12, 1, 9, -38, 19,
   45, -26, -29, 21, 1, 31, 0, 21,
   9, -30, 51, 1, -26, 16, -31, -17,
   -21, -20, 19, -40, -5, 2, -4, -30,
   -17, 43, 24, 14, -19, -18, -27, 15,
   -9, -7, -43, -7, 11, -9, 34, 16,
   -30, 7, -12, 7, 10, -29, -12, -28,
   17, 45, 2, -36, 16, 20, -12, 20,
   -2, -4, 5, -31, -25, 32, 3, 19,
   16, -36, 21, 2, -21, 6, 22, 36,
   -20, 14, 29, -4, 16, -11, 12, -37,
   23, -2, 36, 1, -29, 29, 55, 3,
   6, 4, -22, -27, -9, -44, 41, 9,
   35, 17, -42, -15, -13, -21, 6, 17,
   34, 1, 1, -6, 45, 58, 10, -1,
   -45, -19, -3, 8, 25, 22, 7, 50,
   34, 27, -49, 16, -19, -37, 0, -24,
   3, -37, -32, 14, -12, -4, -31, 35,
   -41, -19, 36, 7, -38, -23, -16, 36,
   3, -4, 20, -36, -27, 10, 39, -23,
   -43, 1, 36, -16, -21, 34, 14, 25,
   -1, 18, -25, 26, 11, -10, 13, 21,
   -18, 32, 26, 42, 20, -21, 44, 44,
   -1, -20, -35, 31, -3, 2, 21, 30,
   -8, 31, -29, -16, -6, 38, -37, 3,
   30, -37, -3, 34, 36, -14, 24, -18,
   26, -7, -23, -5, 24, -28, 32, -25,
   -32, 34, -8, -38, 29, -39, -2, 6,
   -25, -34, 32, -4, 25, -38, 8, -20,
   40, 21, 4, -26, -23, -21, -18, 48,
   31, 34, 4, -32, 19, 20, -29, -17,
   -16, -28, -6, -30, 9, -22, 8, -18,
   20, 34, 58, -24, -11, -41, 7, -12,
   42, -26, 26, 6, 6, 48, -19, -33,
   10, -10, 27, -49, 6, 36, 36, -21,
   -31, 22, 25, 29, 32, -7, 39, 15,
   9, 36, 15, -7, -17, 14, 26, 17,
   -41, -12, -23, 8, -15, 27, 23, 11,
   8, 4, -28, 26, 5, 28, 2, -3,
   47, -33, -22, 1, -14, 31, -36, 28,
   -24, 18, -38, -31, -2, -27, -9, 7,
   9, 13, 1, -25, -15, 8, -10, 14,
   -19, 12, 22, -16, 3, -23, 22, 2,
   4, -33, 11, 21, -33, 31, 17, 3,
   24, 7, -33, -5, -4, -34, -31, -27,
   20, -13, 23, -14, 5, 26, -11, 30,
   4, 14, -15, 32, 9, -6, 41, -29,
   38, 13, -36, 4, -26, -2, 12, 27,
   36, 25, 34, -28, -10, 14, -34, -16,
   -4, -13, -20, 29, -14, -17, -3, -44,
   11, 15, -13, 1, 30, 29, 8, 4,
   -31, 28, 18, -24, -31, -26, 20, -39,
   -9, -26, -7, -26, -16, 19, -7, 37,
   2, -19, -26, 17, 29, 11, 32, -9,
   -28, 17, -22, 4, 25, -49, 13, -48,
   15, 25, -30, 1, -15, 1, 10, -7,
   26, 30, -15, -10, 27, -6, -26, 8,
   -42, 18, -36, 6, 25, 27, 43, -18,
   24, 21, -21, 17, -15, -11, 18, 36,
   -13, 2, 36, 25, 21, -16, -26, 28,
   32, 35, 27, 10, -41, -4, -34, -27,
   14, 24, 23, 8, 3, 0, 38, -17,
   17, 36, 19, 36, 3, 2, 39, 15,
   14, -1, -31, -5, -37, -4, -8, 0,
   20, 4, 7, 26, 10, 9, 23, -31,
   -7, 20, 12, 45, -1, 5, -27, -10,
   4, 30, 12, -31, 5, 25, 42, -8,
   11, 3, -23, 45, 24, 20, -2, -4,
   -14, -8, -31, 3, 4, -57, -10, 29,
   5, -19, 15, -1, 51, 29, -4, 42,
   34, 18, 25, 46, 30, -30, -17, 34,
   -12, 17, -30, 8, 19, 39, 24, -3,
   -38, -41, 24, -26, -7, -3, -30, -26,
   -12, -46, 7, -27, 23, -33, 0, -6,
   4, -16, 29, -46, -18, -42, -1, -14,
   36, 4, 36, 19, -33, 1, -22, 7,
   -6, -1, 47, 11, -43, 15, -26, 37,
   6, -26, -15, -31, -24, 25, -18, -14,
   -39, 20, 0, 6, 1, 13, 21, -14,
   31, 25, 27, -32, 27, 11, 12, -29,
   -28, 16, 17, -6, -15, -29, -13, 27,
   41, 39, -37, 27, 1, -3, 11, 25,
   -6, -6, 26, 5, -9, 2, -1, -21,
   -11, 24, 12, -17, -47, -10, -32, -28,
   2, 17, -1, 29, -18, -45, -18, 21,
   -21, -10, 44, 44, 24, -40, -3, -41,
   44, 4, 32, 30, -43, 73, 14, 10,
   60, -16, 25, 26, -45, -7, -15, 9,
   -42, -38, -46, 11, -35, -21, 24, 5,
   -32, -19, -3, 47, -26, -48, -20, -29,
   -25, 37, 16, -4, 40, 32, 24, -25,
   18, 43, 1, -28, -25, 23, 10, 23,
   -14, -27, -4, 4, -17, -36, 3, 22,
   -14, -25, -23, -29, 7, 29, -35, -6,
   25, 17, 31, 18, 32, 47, -2, 3,
   -33, 5, -7, 5, -18, 31, 2, 26,
   -6, 10, -22, 16, 4, -15, 25, -24,
   43, 37, 15, 12, -22, -47, 2, 13,
   -43, 23, -10, 31, -29, 16, 21, 16,
   -1, -23, 12, -11, 18, -40, 20, 30,
   -21, -19, -35, 38, -14, -8, -13, -35,
   1, -43, 48, 35, 34, -4, -16, -29,
   14, -8, 24, -34, -37, -9, -15, -19,
   15, -50, -15, -26, -30, -45, -19, 16,
   -27, 29, -57, 37, -26, -14, -15, -13,
   -4, -37, 26, 21, -36, -37, -17, 29,
   36, 0, -14, -31, -30, 12, 17, -5,
   35, -43, 22, 16, 22, -12, 17, 20,
   -2, -29, 19, 22, 19, 31, 12, -5,
   38, -46, -35, 22, -31, -17, 31, -13,
   28, 29, 23, -28, -25, 2, -25, -18,
   -30, 0, 44, -12, 19, -34, -18, -51,
   2, 39, 11, -13, -21, -37, 44, 4,
   -23, -23, 14, -29, 10, 8, -29, 18,
   29, -14, -18, 39, -42, -1, -6, -16,
   -14, 4, -32, -22, 12, -1, 35, -9,
   -8, -40, 33, -6, -9, 14, 32, -17,
   -32, 6, -3, 26, 36, -1, 28, -29,
   -23, -5, -38, -43, -5, -29, 37, 16,
   30, -7, -4, 6, -17, 32, -48, -1,
   12, -8, 2, 30, 43, 9, -37, 32,
   26, -10, 12, 39, -19, -34, -9, 41,
   32, -34, 23, -6, -25, 23, -13, -51,
   -10, 6, -19, 39, 40, -38, -43, 16,
   57, -13, -36, -1, -37, -19, 49, 5,
   18, -24, -7, 13, 39, -26, -19, -18,
   -15, -30, 35, -33, -22, -37, -35, -44,
   7, 40, -16, 7, 19, 15, -31, 25,
   -3, 30, 20, 6, 32, 36, -49, -39,
   12, 24, 24, -28, 4, -23, 3, 11,
   -24, -13, -32, 10, 35, -14, 30, 8,
   22, 12, -32, 0, 11, 4, 36, -21,
   33, -8, -9, -1, -11, -3, 33, 25,
   24, 33, -5, -19, 29, -19, 30, 30,
   -36, -28, -37, -35, -37, -2, 10, 44,
   -6, -9, 5, 33, 14, 11, -8, 7,
   -20, 4, -25, 4, 28, 21, 28, -38,
   18, 13, 39, 26, 31, 49, 20, 4,
   -38, 18, 1, 37, -2, 24, -10, -43,
   24, -8, 1, 17, -30, 42, -23, -6,
   -34, -4, -13, -16, -32, 2, 4, -18,
   -26, -25, -51, -17, 14, -23, 22, -34,
   -24, 10, 33, -23, 18, -20, 14, -26,
   34, -3, 33, 25, -23, -37, 39, -25,
   -2, 31, -22, -36, 36, 30, 4, 21,
   3, -18, 42, -21, 26, 11, -33, 37,
   11, 17, -35, 10, -35, 29, -19, 5,
   -1, -32, -2, 27, 3, 13, -12, 21,
   19, -17, -20, 7, 3, 7, -46, 18,
   -19, -23, 24, -4, -13, 26, -40, -23,
   13, -30, 39, -15, 38, -33, -14, -4,
   -8, 22, -28, -32, 37, 41, 18, 19,
   25, 9, -1, -10, -5, 5, -9, 31,
   -41, 15, 11, 5, 0, 33, 38, -15,
   34, 29, 26, 37, 11, 9, 9, -11,
   -11, -19, -36, -21, 5, 22, 11, 4,
   -14, -7, -23, 15, -26, 56, -7, 13,
   -25, -16, 22, -35, -38, 39, -18, -3,
   0, 29, -22, -27, -36, 18, 34, -41,
   34, 18, 13, 13, -30, -30, -27, 11,
   -2, 12, -24, -35, -14, -14, -20, -32,
   -20, 17, -20, -5, 5, -2, 37, 20,
   36, -32, 22, 17, 50, 9, -18, 10,
   -43, 0, 28, 15, -33, -19, 20, 25,
   -17, 4, 34, 27, -36, 18, -24, 32,
   -37, -34, -22, 49, 34, 1, -25, 46,
   -9, 14, 16, 31, 21, 5, 13, 23,
   38, 0, 13, 32, 10, 17, 10, -7,
   -5, 18, -39, -16, 15, 9, -19, -5,
   2, 25, -17, 8, -26, 9, 2, -30,
   -20, 34, 22, 42, -34, -48, -13, -6,
   -31, 37, -14, 37, -29, 26, -12, -34,
   -11, -38, -27, -30, 9, 16, -3, 8,
   63, -28, -42, -25, -31, 7, -9, 3,
   32, -12, 3, -46, 23, -19, -38, -25,
   12, -31, -25, 15, 14, 36, 4, -20,
   42, -17, 2, 10, 26, -27, -4, -2,
   -4, 19, 43, 29, 14, 40, 35, 29,
   2, -16, 22, -33, 25, 19, -33, 21,
   21, -11, -13, 37, 31, -21, 33, -1,
   -1, 12, 34, -2, -23, -40, 4, -12,
   32, 21, -24, -24, 23, -32, 3, -14,
   -32, -29, -7, -22, -12, 24, -1, -49,
   -12, -14, -24, 11, 33, -29, 21, 23,
   -22, -24, 26, 8, 12, -4, 16, -6,
   26, 9, 10, 38, -36, 9, 18, 36,
   28, 10, -27, -10, -34, 11, 34, -25,
   0, -21, -20, 26, 29, -43, -28, 0,
   -27, -1, 1, 33, -31, 5, 34, 42,
   26, 18, -43, -22, 3, -5, 42, -26,
   -48, -6, -5, 8, -26, -13, 9, 22,
   28, -8, 5, -12, 5, -22, 26, -47,
   18, -17, -18, -3, 24, 11, 52, 0,
   4, 17, -27, 13, 35, -9, -17, -1,
   7, -33, -23, 27, -1, 11, 12, 11,
   -44, 20, -26, 30, -46, 16, 24, 7,
   -9, 3, -5, -24, 48, 18, -24, -21,
   6, -6, 18, 11, -30, -14, 39, -10,
   10, 16, 8, 24, -38, -37, 12, 7,
   -14, -31, 36, -28, -48, -24, 12, 7,
   31, -27, 38, 5, -27, -5, -1, -3,
   5, -3, 32, 11, -16, -15, -5, 25,
   22, -31, -23, -2, 9, 12, 24, 34,
   22, 28, 37, 6, -13, 21, 40, 8,
   -34, 28, 25, 16, 19, 25, 24, -10,
   -15, -20, 4, -6, -25, 18, 23, -5,
   18, 34, -5, -37, -7, -36, 9, 32,
   28, -28, -37, 23, -30, 0, 18, 12,
   7, -24, 24, 10, 23, 4, 39, -44,
   0, -2, 22, 13, -11, 42, -22, 40,
   -9, 0, 24, -1, -10, -6, 2, -19,
   -21, 0, 46, 51, 21, -1, 30, 31,
   -31, 37, 43, 37, 61, 17, -12, 13,
   -35, -17, 11, -30, 18, -28, 20, -22,
   22, 10, 8, 11, -26, -27, -7, 47,
   -20, -31, -4, 30, 6, -7, 32, 35,
   -24, -37, -13, 21, 16, 21, -1, -16,
   -30, -17, -2, 15, 19, -18, -9, 9,
   -10, -5, 33, 37, -24, 33, -24, -12,
   -44, -13, 7, -5, 40, -15, -14, 9,
   37, -12, 20, -2, 14, -2, 31, -3,
   -29, -13, 25, -19, -30, 3, 14, 9,
   12, -9, -34, 27, -27, 21, 0, -11,
   19, 33, -2, -36, 7, 16, -36, -11,
   2, 2, 21, 28, -2, -21, -17, 31,
   -30, 32, -13, -25, 28, -27, 13, 24,
   31, -7, -51, 17, 0, -23, 15, -31,
   16, -23, -25, 42, 26, -44, -31, -37,
   36, -11, 14, -10, -31, 36, 10, 28,
   3, 14, -40, -6, 27, -36, 5, 25,
   13, 23, 6, -32, 0, -26, -18, 50,
   11, -42, -59, 21, -41, 8, 15, -5,
   0, -20, -26, -34, 11, -22, -27, -12,
   7, 25, -26, -25, -9, -49, -22, 29,
   -13, -25, -17, -38, 28, 10, -11, 52,
   -18, -29, 35, -52, -36, 20, 42, -33,
   -26, -10, 12, 39, -2, -11, -17, -1,
   -44, 30, -16, 10, 14, 3, 52, 26,
   11, 41, 18, 9, -49, 37, -25, 26,
   5, 37, -36, -34, 23, -39, 42, -7,
   10, -1, -23, 11, -13, -26, -13, 10,
   -22, 0, 6, 1, 25, 26, 28, -59,
   -27, -2, 19, 28, 30, 26, -16, -29,
   -25, 22, -43, -33, -16, 24, 8, 30,
   46, 37, 5, -34, -11, 54, 1, -9,
   21, -43, 16, 0, 19, -4, -16, 2,
   23, 8, 27, 37, -9, -56, -31, 51,
   -1, -18, -23, -7, -4, -42, -35, -53,
   -18, -26, -7, -10, -17, 11, -4, -16,
   17, -39, 24, 10, 18, -7, 39, -21,
   44, -3, -9, -47, 11, 7, 12, -10,
   20, 37, 26, 19, 24, -15, 1, -38,
   -3, -6, 23, 4, 10, 43, 20, 16,
   -23, -10, 38, -9, 29, 38, 14, 41,
   -30, 25, -41, -5, -5, 25, 26, 36,
   0, -32, 10, 27, 26, 24, 21, -4,
   -11, -7, 1, 6, 33, 15, -43, -3,
   -1, -36, -6, -27, -5, -26, 28, 12,
   -42, -13, 23, -21, 15, 30, -17, -5,
   43, -16, 29, -14, 9, 33, -48, -21,
   2, -11, 18, -38, -15, -10, 15, -14,
   -6, 35, 15, -14, -1, 28, -6, -10,
   3, -8, -40, -35, 21, -5, -28, -40,
   17, -36, -33, 22, 32, -13, 19, 31,
   1, -32, -15, -15, 30, -1, 12, -48,
   11, 37, 16, -17, 6, -28, -7, -28,
   -11, -11, 38, 13, -33, -20, 32, 32,
   -3, 7, 14, -20, -3, 14, 2, 6,
   -36, 23, -59, 23, -46, -26, -32, 39,
   -35, 42, 17, -31, 13, 25, 8, -33,
   -3, 23, -2, 9, 18, 10, -46, -28,
   -25, 41, 37, 33, 8, -3, 5, 9,
   28, -36, -32, 1, 2, -9, -20, 23,
   -15, -13, -14, 20, -48, -29, -23, 12,
   -30, -11, -14, 24, -24, -15, 23, 41,
   10, -10, 8, -24, -34, 17, 22, 18,
   -16, -38, -36, 15, 39, -29, 1, 38,
   5, 26, 42, 2, 2, 27, -3, 26,
   -17, -5, 23, -34, 27, 24, 3, -12,
   22, -28, 42, -28, -12, 4, -19, -26,
   21, -9, 30, 6, -13, 5, 18, 30,
   11, -15, 36, -12, -17, -12, 68, -6,
   -7, 28, -17, -66, -39, -28, -5, 11,
   -43, -17, -5, -18, -10, 2, 4, -20,
   61, -11, 18, -29, -22, 40, 10, 23,
   57, 1, -40, 37, -3, 24, -3, -25,
   7, -34, -13, -4, -1, 11, -10, -40,
   -33, -21, -30, 36, -14, -20, 41, 10,
   32, 19, 12, 5, 8, -18, 4, -38,
   -15, 23, 42, 6, 17, -13, -33, 33,
   27, 11, 3, -40, -21, 0, 9, 13,
   -24, 2, 15, 13, -34, 44, 17, -9,
   -28, -30, 35, -29, 22, 30, 15, -16,
   -34, 32, -28, 42, 23, -26, 35, 30,
   8, 25, -41, -29, 31, 33, 45, -35,
   41, 15, 22, 2, -21, 5, 11, 57,
   -2, 6, -14, -25, -18, 15, 36, 3,
   -40, -47, -45, -30, 15, 13, -39, 22,
   3, -27, -4, 17, 14, 14, -37, 15,
   -32, 10, -41, -23, -21, -8, 15, -18,
   30, -31, 2, 6, -12, 16, -24, 20,
   11, 12, -18, -37, 24, 3, -45, -21,
   -33, 16, -52, 29, -37, 64, 38, -10,
   21, -28, 27, 15, -35, -2, -32, -7,
   -4, 18, 9, -4, -2, 9, -47, -1,
   25, -49, 24, -24, 17, -34, 3, 11,
   -23, 39, -40, 21, -44, 22, -8, -4,
   2, -34, 29, 21, -31, 38, 39, 6,
   -45, 5, 18, -22, -33, -50, 48, 14,
   10, 21, 26, -22, -35, 40, 42, -7,
   -28, 9, 2, -26, 2, 6, 6, 12,
   -43, -41, -16, 21, 39, -41, -25, 26,
   -29, -14, -3, -15, 17, 21, -14, -23,
   4, -28, -1, -11, 5, 24, -13, -39,
   -29, 7, -30, 25, 32, 24, 4, 8,
   28, 51, 24, -34, -1, -8, -14, 15,
   -24, -19, 27, 22, 10, 31, -19, 25,
   -28, -37, 30, 30, -20, 18, 30, 11,
   57, 8, 27, -44, -5, -8, 19, 50,
   4, -2, 7, 40, -34, -36, -21, -47,
   10, 27, 8, -5, -10, 7, 9, 11,
   1, -26, 36, -7, 16, 12, 18, 27,
   49, -5, 4, -14, -4, 25, -7, -10,
   -24, -25, -26, -10, 34, -10, -21, 29,
   -46, -8, 27, 10, -28, 5, -40, 7,
   9, -10, -14, 34, -2, 33, 0, -9,
   -46, -27, 48, -36, 13, -45, -17, 20,
   25, 9, 17, -4, -6, -12, 11, -17,
   21, 26, -12, -13, -10, -6, 17, 27,
   20, 2, -39, -11, 42, 25, -25, -18,
   1, -1, 4, 6, 25, 3, 10, 44,
   16, 22, -6, 45, 22, 34, -28, -38,
   -26, 6, -1, -38, 9, 18, -10, 23,
   -23, 46, 15, -7, 28, -10, 19, -27,
   -34, -6, -34, -36, 35, 15, -6, 8,
   -3, -10, 12, -10, -10, -46, -14, 31,
   -10, 28, -5, -12, -26, 4, 46, -40,
   24, 10, 34, 8, -17, 9, -13, -24,
   13, -6, -16, 42, -19, 2, 24, 15,
   -2, -7, -14, 25, -35, -21, -14, 6,
   9, -18, 2, 17, -36, 26, -22, 21,
   4, -34, -13, -2, 25, 7, 18, 28,
   -1, -36, -10, -2, 6, 25, -31, 9,
   3, 0, 9, 21, 17, 24, 23, -11,
   -40, 38, -16, 35, 13, -25, -22, -29,
   -6, -2, 13, 12, 16, 19, -15, 30,
   -5, -31, -5, 22, 30, 1, -20, 8,
   -13, 6, 14, 8, 38, 40, -18, 12,
   16, -29, -35, -12, -3, 34, -5, -17,
   -9, 17, -26, -2, -14, 35, -3, -18,
   2, -16, 33, -1, 6, -2, -9, -16,
   29, -25, -17, -39, 30, 29, -33, -7,
   -24, 9, 25, -1, -12, 32, 24, -21,
   -14, 16, 17, 11, -30, -48, -6, 32,
   16, 17, -45, 4, 13, -40, -3, 20,
   45, 43, -39, -12, 22, 11, -2, -10,
   -3, -7, 9, -17, -31, -22, 19, 31,
   0, 38, -7, 37, -33, 19, 19, 5,
   14, 7, -9, 19, 30, 12, 27, 12,
   7, -20, 26, 27, 34, 27, -35, -24,
   -32, 7, -29, -2, 1, 16, 27, -20,
   -24, -20, -6, 41, -43, -18, 20, 11,
   16, -9, 14, 13, -17, 2, 39, 52,
   -36, -7, 29, 20, -28, 2, 40, 22,
   -35, 9, -22, 41, 33, 2, -1, -1,
   -13, -31, 20, 35, 29, 5, -11, -23,
   13, -11, 9, -22, 23, 39, 24, -22,
   -7, 13, 13, 39, 31, -26, 15, -15,
   8, 22, -37, -13, -25, 41, 11, -17,
   2, -9, 9, 7, 5, -35, -35, 18,
   33, -31, 32, -36, 24, -16, 21, 37,
   32, 21, 25, 1, 14, 60, -2, -45,
   -39, 34, -8, 8, 24, -25, -12, -3,
   0, 12, -22, 19, -17, -13, -3, 17,
   34, -45, -21, 17, 14, 43, 27, 9,
   -5, -14, 27, 20, -5, 16, 22, 41,
   11, -31, 10, -43, -5, -18, -38, -6,
   40, 42, -18, 40, -3, -38, 24, 39,
   47, 18, 19, 20, 38, -15, 14, -21,
   0, -29, 9, 19, -23, -2, 1, -22,
   -22, 15, -10, 27, -44, 8, 23, -24,
   -27, 41, -7, -2, 32, -35, 3, -3,
   -22, -29, 4, -45, -35, 19, 20, 35,
   -17, 17, -9, -39, 38, -35, -37, 4,
   23, 44, 12, -15, -42, 31, -3, 31,
   23, 40, -4, 12, 0, -26, -19, 10,
   -6, 23, 44, -5, 14, -14, 23, -5,
   47, 2, -21, -13, -2, -62, 6, -40,
   -28, -14, 32, -41, 22, 35, -3, -30,
   38, 32, 9, -7, 1, -8, 30, -9,
   15, -7, -15, -28, 2, -4, 6, -31,
   -15, 7, 27, -44, 36, 11, 22, -24,
   25, 20, 3, -52, -27, -10, -39, 22,
   -5, -14, 13, 10, 28, 29, -35, 0,
   -18, -10, -19, -8, -24, 23, -3, 10,
   42, -12, -34, 8, 35, 16, -2, -29,
   -2, 33, 18, -12, 4, 20, 25, 26,
   6, 30, 18, -44, -12, 1, 31, 4,
   29, 35, 10, 15, -28, 12, 8, 4,
   -12, 19, -19, -2, -16, -36, -2, -37,
   -33, 3, -15, 15, -7, 46, -30, 15,
   35, -2, -12, 4, 30, -38, 21, 12,
   1, 30, -22, -31, 13, 31, 28, -44,
   -10, -6, -22, 17, 22, 34, -8, 27,
   -15, -1, 0, 23, 7, -18, 2, 40,
   -16, -27, -27, 24, -5, -14, -4, -21,
   -27, -34, -6, -15, 30, 33, 0, -10,
   30, -4, 6, 8, -9, 39, 9, -13,
   -18, 15, -54, -3, 49, -3, -1, 40,
   -6, 47, -17, 19, 4, -18, 60, 12,
   36, 6, -4, 47, 5, 1, -13, 13,
   7, -3, 19, -52, 9, 8, 24, 2,
   -15, -14, -42, -37, 1, -45, 3, -5,
   16, -14, 12, 14, -14, -67, 18, 1,
   28, -45, 40, 18, 32, 5, -38, 35,
   9, 22, 44, -8, -5, -24, 1, 2,
   -37, -27, -34, -26, -51, 28, 6, 10,
   6, 8, -2, -46, 30, -19, 47, 1,
   -11, 22, -33, 15, 32, -46, 56, 32,
   -43, -3, -2, 16, -24, 8, 13, -16,
   -38, -14, -16, 36, -21, 25, 6, 37,
   16, -48, 18, 26, 5, -10, 44, 14,
   37, 4, -4, -13, -31, 17, 47, -31,
   -45, -34, 27, -29, -7, 29, 18, 48,
   6, 38, 13, 12, -22, -28, 29, -11,
   -7, -8, 3, 42, 3, 15, 23, -12,
   50, 40, -30, -67, -23, 8, -24, 20,
   38, 18, -11, 14, -8, 19, -95, 8,
   -27, -1, -36, 3, -87, 20, -23, 8,
   -16, -19, -49, 19, -3, 21, -14, 12,
   14, -24, -29, 6, -42, -12, 19, -26,
   -12, 62, -10, 36, 34, -49, -52, -28,
   24, -53, 37, 32, 1, 66, 8, 45,
   -3, -4, -60, -14, -15, -17, 12, -40,
   1, 39, 56, -3, 56, -24, -2, -15,
   66, 6, 10, 46, 55, -13, -9, -25,
   6, 21, 25, -68, 77, 8, 41, 13,
   18, 7, 8, -37, 4, 13, 27, 3,
   -29, -45, 14, 37, -22, -6, -19, -41,
   27, -18, -56, -5, -13, 11, -45, 9,
   -28, -32, 15, 28, -29, -54, -4, -5,
   -7, -15, 28, 15, -3, 38, 2, -29,
   42, -20, -19, -20, -11, -23, 54, 38,
   -16, -28, 4, 25, 10, 45, 36, 29,
   12, 9, -13, -6, 51, -23, -49, 55,
   -39, 18, -1, 73, -8, -3, 76, -6,
   29, -25, -39, -9, 85, -18, -28, 29,
   25, 20, -103, -30, 50, -31, 32, -63,
   -18, 6, -18, -17, -12, -61, -82, -81,
   21, 41, 30, -31, -128, -5, 5, -33,
   -2, -38, -35, 69, -25, 77, -3, -25,
   69, 40, -45, 6, 58, 2, 116, 49,
   0, -57, 73, 17, 25, 53, 29, 16,
   94, -85, -9, 9, -40, 121, 73, 79,
   -4, 21, -16, -38, -64, -35, -29, -17,
   8, 23, 11, -47, 21, -17, 44, -6,
   -3, -16, -4, 39, -37, 13, -10, 41,
   31, -77, 14, -82, -42, 22, -19, -1,
   44, 7, -5, -14, 23, 53, -1, 12,
   -27, 19, -3, -13, 12, 50, -39, -22,
   -14, 59, -101, 40, -63, -14, -14, -55,
   -45, 8, 26, 17, 4, -10, 44, 3,
   20, 27, 11, -36, 29, -33, -25, 5,
   52, 71, 11, 21, 28, -40, 21, 32,
   -15, 40, 86, -49, 66, 69, -19, -32,
   -71, 54, 47, -68, 24, 41, 6, 6,
   -20, -28, -94, 127, -20, -20, -63, -75,
   -29, -8, -52, 39, 36, -6, 18, 26,
   -44, -53, -25, 30, 54, -9, -53, -20,
   54, -69, 29, -47, -14, -66, 4, -32,
   0, 121, 8, 87, 7, -127, -91, -10,
   -10, 105, -70, 33, 64, 127, -65, -49,
   67, 79, -15, -59, 93, -75, 7, 17,
   -36, 24, -18, 2, 37, 93, 19, 84,
   7, -68, -31, 5, -85, 2, -38, -20,
   -33, -105, -7, -2, -44, -15, -40, 7,
   8, 25, -48, 80, 35, -106, 28, -6,
   -54, 1, -30, -15, 24, 67, 46, -56,
   0, -15, -36, 27, -13, -94, -38, 47,
   9, -12, 100, -29, -20, -19, 71, 24,
   64, -14, 38, 127, 1, 40, -61, 47,
   4, 20, 4, 18, 50, -25, 3, -11,
   -24, -35, 40, -18, -33, -74, -11, 16,
   -39, -21, -70, 48, 3, 57, 1, -12,
   -50, 22, 54, -6, 104, -99, -56, 34,
   -49, 27, 24, -19, 65, 27, -9, 83,
   -37, 10, -43, -128, -35, -64, 29, 15,
   -41, -19, -41, -37, 7, -39, 49, -52,
   8, -24, 35, -119, -80, 16, 50, 60,
   9, 0, 15, -39, -22, 70, -10, 43,
   -14, -34, 27, -50, -37, -50, -21, -69,
   8, 4, 92, -42, -48, 37, -37, -13,
   -49, -2, 127, -100, 33, -29, -24, 0,
   46, -38, -12, -34, 40, 0, -30, 46,
   -25, 32, -43, -26, -17, -6, 54, -29,
   -2, -37, -29, -22, -23, 86, 30, -27,
   -55, -29, -58, 2, -35, 17, -1, 35,
   39, 27, -65, -77, -2, 34, 44, 0,
   -73, -51, 21, -25, 37, -6, -24, 5,
   50, -84, -39, -20, -41, -28, 20, -34,
   38, -32, -39, -27, -26, -8, 5, -15,
   -55, -6, 85, -16, 20, 14, 53, 49,
   -84, -44, -95, 127, 27, -53, -54, 21,
   -5, 11, 71, -38, 48, 19, 22, 91,
   -7, -53, 16, -128, 28, 24, 2, 99,
   13, 26, 21, -32, -14, -51, -82, -27,
   3, -9, 7, -105, 86, -67, -7, 16,
   7, -102, -36, 60, 106, 30, -9, -58,
   3, -56, 16, -38, -22, 53, 50, -22,
   -23, -32, 75, -41, -5, 58, 4, 39,
   36, 3, 95, -49, 1, -24, -32, -3,
   5, -41, 20, -52, -12, -2, -24, -26,
   14, -42, -45, -14, -5, 58, -105, 26,
   -29, -13, -37, 12, 16, 42, -14, -102,
   54, -13, -48, -20, -38, 25, -25, -3,
   -111, -11, -83, -19, -60, -66, 3, 7,
   -34, -59, -85, 127, 81, -5, 22, -19,
   20, 22, 13, -65, -37, -9, 127, 12,
   -64, 44, 13, -47, -21, -54, 56, 7,
   53, 27, 75, -79, 33, 32, 89, -42,
   -21, -6, -34, -54, -68, -88, 15, -24,
   16, 64, 50, -63, 67, -80, -28, 51,
   17, -3, 69, -107, -43, 11, -8, 127,
   3, 21, 51, 14, 92, -48, -14, -9,
   53, -18, 72, -2, 49, -4, -103, -10,
   83, -128, -4, -9, -9, 47, -28, -128,
   -9, -16, -113, 35, 60, 66, -14, 18,
   43, -18, 18, 73, -40, -25, -48, 0,
   -34, 35, 28, -108, -9, -36, 11, -44,
   42, 28, 68, -35, 33, -37, 52, 33,
   37, 18, -33, -60, 37, 22, -48, 50,
   -60, 2, -100, -15, -10, 15, -29, -37,
   -21, -26, -57, 60, -4, -84, 52, 26,
   10, 30, 32, -1, -17, -34, 40, -70,
   17, 0, -60, 52, -1, 99, 46, -3,
   13, -33, 29, 81, 61, 9, 60, 88,
   63, 3, -35, -17, -1, -128, 11, 40,
   -6, -34, -20, 38, 33, 40, -118, 25,
   -41, 4, 55, 122, -21, 101, -104, 64,
   3, -44, 30, 91, 41, -96, 120, 110,
   -79, 73, 68, -78, 41, -32, 17, 75,
   26, 73, 56, -37, 69, 30, 29, 105,
   14, -74, 24, -106, -78, 92, -113, -12,
   -25, -37, 74, 37, -15, 45, -93, -9,
   -25, 63, -58, 39, -11, -50, -58, -30,
   -57, -34, -1, 14, -50, 9, 27, -22,
   -8, 25, 75, -123, -25, -1, 13, 56,
   13, 77, 89, 39, -67, 4, 9, 16,
   47, -49, -36, -22, 12, 72, -92, 11,
   36, -5, -128, -53, 75, -16, -30, -11,
   -11, -11, -53, 41, -40, 20, 11, 13,
   127, -71, -12, 44, 29, -40, -58, -46,
   -101, 10, -5, -115, -25, 26, 15, 12,
   -2, -108, 33, 37, 0, 58, -69, -44,
   51, -32, -50, -13, 18, -12, -24, -39,
   28, -74, -43, -48, 28, 40, -59, -25,
   -50, -49, 127, -14, 21, 36, 15, 7,
   -49, 32, -1, 15, -59, -74, 18, 107,
   37, 76, 0, -15, -30, -47, 66, 127,
   -72, -33, 62, -26, -47, -33, -69, -37,
   -5, 76, 48, 11, -4, -40, 1, -67,
   -28, -39, 56, 14, -47, 40, 16, -112,
   44, -68, -7, -23, -48, -16, -23, -30,
   -46, 3, 72, 24, -3, -97, -21, 32,
   -43, 91, 78, 41, 30, -7, 17, 28,
   -38, 13, 66, -9, 31, -76, -53, 25,
   30, -86, 13, 30, -36, 34, -54, -2,
   -37, -22, -54, 57, -31, -35, -11, -6,
   33, 12, -2, 28, -12, -10, 28, 5,
   -12, -15, -84, 51, 41, -105, 32, 62,
   60, -34, -27, 127, -38, 62, -13, -5,
   51, -40, 69, -15, -62, -14, 70, -23,
   -12, 37, -10, -74, -122, -42, -26, -19,
   67, 36, 6, -38, 55, 112, 14, -118,
   8, 6, 127, -128, -17, 81, -6, -7,
   8, 70, -60, 21, 64, -80, 68, 16,
   74, -83, 13, -120, -18, -35, -18, -108,
   -9, -53, 54, 11, 107, 92, -46, -3,
   -15, 36, -43, -21, -126, 127, -49, 61,
   44, -102, -12, -65, -43, -64, 23, 48,
   -88, -83, 59, 125, -4, -33, 98, -28,
   22, 47, -79, -68, -9, -114, 14, -60,
   32, -54, -2, -124, -9, -9, 30, -58,
   61, 74, -6, -13, 0, -1, 80, -9,
   56, 10, -50, -95, -21, 72, 18, 36,
   -23, 29, -6, 5, 38, 11, -80, 127,
   -39, -8, 51, 18, -50, 53, 9, 11,
   13, -10, -11, 85, 19, -41, -21, 1,
   77, -24, -95, -118, 34, -28, 10, -3,
   7, 62, 110, -81, -90, 66, -82, -8,
   -27, -41, 92, 14, -128, -49, -2, -72,
   91, 25, -76, 127, 1, -52, -2, 9,
   -16, -15, 69, -127, 5, 61, 53, -16,
   16, -47, -50, 41, -34, -60, 37, -59,
   49, -32, -4, 90, -29, -78, -17, 51,
   16, -5, 27, -16, 50, -43, -72, 80,
   -40, -22, -96, 75, -54, -91, -44, 17,
   48, -35, 103, 23, 85, -50, 6, -48,
   -37, -21, 126, 90, 73, -62, 1, 57,
   12, 35, -64, 14, 5, -6, 1, 6,
   43, -64, -56, 34, 5, -63, 32, -36,
   -37, 48, -17, 27, 32, -36, 3, 46,
   0, -5, -74, 13, -27, -18, -21, 46,
   -1, 7, 60, -10, 36, 0, 35, 44,
   67, 21, 58, 81, -87, 57, 14, -3,
   123, -128, -124, 43, 62, -17, -90, 13,
   21, 33, 77, 32, 127, 14, -11, -73,
   -55, 73, -22, 21, 127, -13, 5, 19,
   -48, 127, -37, -52, -108, -94, -6, -30,
   45, -42, -67, 48, 33, 15, -90, -56,
   46, -71, 127, -42, 47, -58, 116, 17,
   51, 20, -46, 19, -73, -85, 84, -107,
   87, 2, -30, 127, 18, -32, 116, -84,
   -73, 54, -35, 20, -79, 127, 29, 11,
   27, 16, 75, 123, -38, -18, 41, 61,
   58, -40, -128, -69, 3, -103, 73, 46,
   -78, -109, -36, 102, -36, 34, 64, -9,
   -79, 25, -66, -71, -92, -105, 97, -69,
   0, 57, -81, 127, -37, -15, 21, -37,
   -9, 60, 24, -10, 26, -45, 78, 1,
   -7, 49, 84, 3, 7, -41, -33, -1,
   -23, -6, 103, -64, 48, -36, -30, 19,
   61, -84, -32, 56, 20, 54, -20, -35,
   -114, 51, 32, 12, 6, 24, -47, 82,
   -14, 2, 46, -49, 14, -10, -59, -48,
   58, 46, -113, -113, 10, -48, 64, -32,
   -83, 44, 21, 14, 102, 40, -15, -16,
   66, 67, 98, -43, -8, 6, -7, -48,
   -24, 61, 127, -128, -81, -61, 79, 28,
   23, -121, -55, 127, -91, -7, 15, -128,
   58, 107, -128, 121, -9, -57, 13, 15,
   -14, -5, -25, 2, -36, 24, -56, -55,
   5, -41, -122, 32, -76, -110, -128, -88,
   46, 90, 57, 16, -108, -41, -104, -103,
   -68, -51, 88, 127, -82, -127, 39, -99,
   77, -22, -85, -33, -39, -61, -27, -6,
   -8, -43, 22, 124, -45, -8, 23, 90,
   -31, -57, 52, 43, 77, -11, 4, -40,
   -4, 4, -80, 87, -38, -31, -76, -34,
   72, 5, 64, 31, -54, -52, 7, 91,
   61, 3, 7, -50, 5, 34, 48, 10,
   16, 29, 127, 56, 23, 66, -8, 44,
   -16, 40, -35, -44, -29, 34, -7, 11,
   -11, 11, 41, -66, -29, -7, -75, -3,
   26, 32, 27, 48, -14, -6, 29, -18,
   -22, 8, -47, -40, -13, -90, 101, 16,
   58, 67, 22, 29, 61, -82, -9, -47,
   -27, -26, -3, -75, 25, -58, 122, 27,
   34, 10, -3, -34, -36, 17, 6, -4,
   62, -20, -29, -49, 29, 29, 114, -31,
   -38, -125, 77, 20, -37, 127, -119, -31,
   65, -15, 81, 1, -27, 10, -13, 126,
   20, -31, -35, 49, -127, 55, -14, -35,
   39, 109, -6, -69, -7, -72, 55, 26,
   -53, -5, -25, -18, -19, -60, 12, -15,
   -26, -63, -30, -22, -36, 32, -1, 66,
   40, 4, 15, -36, 16, 105, 14, 43,
   -3, -5, 47, 9, -21, -43, 6, 95,
   20, -16, -12, 80, -63, 45, -40, -6,
   127, -59, 127, 41, 47, 48, 70, 50,
   73, -4, 89, 28, -20, 32, -87, 11,
   -83, 52, 18, -79, -42, -11, -84, -58,
   -27, 90, -74, 5, 5, 108, 9, -26,
   26, -50, -60, -53, 22, -80, -5, -55,
   126, 18, 80, -116, -28, -71, 47, -12,
   -16, -20, 33, 109, -74, 12, -1, 17,
   75, 56, -6, 22, -9, -33, -8, 39,
   21, 49, -38, -33, -5, 24, -10, 41,
   -33, -37, -9, 2, 9, -73, 68, -6,
   -52, -90, -100, -15, -50, -33, 8, -54,
   18, -103, 127, -33, 52, -44, 52, -55,
   -57, -16, 9, -53, -57, -37, -14, 26,
   -31, 51, 122, -10, 48, -35, 19, 59,
   -12, -72, -50, -23, 43, 2, -41, 19,
   -1, 32, -42, 9, -63, -79, -15, -47,
   35, -8, -25, 8, 29, 54, 37, 3,
   3, -25, 4, -57, 42, -14, -18, -40,
   -126, 26, 109, 14, 10, 84, -26, 14,
   -30, -13, 87, 14, -26, 17, -30, 8,
   -71, -45, -40, -16, -25, 4, 48, -52,
   -20, -118, 21, 55, -47, 72, 0, 9,
   69, -39, -29, 127, -44, -103, 43, -39,
   12, -54, 11, -128, 36, 3, 127, -20,
   -37, -13, 53, 26, -24, -16, -92, -88,
   50, 12, 33, 24, -110, -17, 57, 53,
   -77, 98, 37, 9, 31, -37, 34, 37,
   44, -99, -85, -7, -3, 12, 95, -18,
   36, -68, 58, 51, -71, 58, -28, 1,
   23, -38, 28, -19, -22, -1, -53, -79,
   104, -30, 54, 90, -12, 16, -64, 16,
   -36, 24, 39, 31, 18, -24, -1, -16,
   -6, 2, 74, -43, 16, 39, -25, -16,
   -16, -44, -114, 58, 22, 86, 41, -40,
   -30, -32, 13, 40, -27, 40, -34, 49,
   -11, -37, -83, -71, 36, -13, -43, -49,
   -99, 32, -18, -98, 31, -49, 25, -38,
   -11, 12, 17, 47, 4, 64, -5, 80,
   -76, -32, 106, 69, 127, 21, 106, -109,
   -81, 31, -27, -50, 36, -40, -8, -49,
   76, -81, -6, 22, 23, -2, 32, -50,
   -50, -19, 68, 103, 101, -5, 16, 4,
   -13, 125, -14, 10, 21, 78, -28, 13,
   11, -40, 122, -98, -5, -30, 35, -59,
   -67, 38, 6, -1, 44, 26, -19, 46,
   16, 127, 104, -118, 78, -89, 81, 73,
   52, -87, -21, -8, 40, 20, 24, -50,
   80, -70, 65, -18, 127, 45, -32, 22,
   11, 44, 93, -14, -32, 63, -34, 38,
   -13, 76, 104, -23, -30, -6, 11, 9,
   85, 18, -43, -16, 25, -5, 42, -12,
   25, 47, 64, -37, 33, -14, 87, -22,
   26, 22, -12, -37, 0, 20, -43, 53,
   -50, -38, 58, -90, 70, -12, -10, 18,
   32, -80, 39, -30, 72, -35, 56, 32,
   -29, -19, 28, 77, 27, 68, -10, 22,
   -50, -56, -34, 25, 99, -35, 108, -23,
   7, -97, 13, 73, 14, -117, 14, -21,
   13, 57, 5, -48, 42, 127, 123, -57,
   -20, -43, 31, 66, -13, 16, -71, -2,
   17, -69, 62, 5, 10, -13, 9, -27,
   11, 63, 49, -110, 46, -28, -94, 52,
   -79, 8, 45, -10, 36, -33, 5, -24,
   78, -66, -75, -69, 2, 17, 36, 5,
   -37, -127, -40, 13, -15, -69, 45, 31,
   58, -64, -66, -6, -15, -93, 16, -11,
   -13, -37, 113, -33, -13, -19, -41, 18,
   13, 104, 81, -76, 3, 19, -13, 21,
   19, 75, 44, -7, -55, 44, 18, -33,
   26, -52, -25, 28, -26, 53, 52, 20,
   -24, -48, -31, 23, 3, 4, 31, 30,
   -4, -4, 0, -55, -48, 73, 26, -39,
   2, 54, -27, -53, -7, 24, -86, -1,
   0, 5, -32, 34, -22, 5, -19, 17,
   -40, -33, 12, 15, -40, 30, -24, 15,
   5, 11, 4, -30, 4, 0, -17, 23,
   -69, 46, -16, -14, 4, -53, 1, 36,
   27, -3, -12, 44, 24, -8, -2, -10,
   -49, 44, 10, -40, 28, 2, -72, 56,
   -45, 14, 3, 7, -10, -37, -45, 12,
   87, -88, -70, -38, 61, 67, -11, -2,
   13, 37, -80, -3, 13, 16, -38, 8,
   -17, -44, -1, 29, -19, 35, -21, 23,
   24, -17, 126, 78, 39, 63, 43, -19,
   47, 54, 43, 15, 14, -9, -51, 7,
   40, -55, -26, 79, -16, -36, -32, -30,
   26, -19, 2, 6, -1, -42, 9, 13,
   30, 7, 6, -29, 36, -16, 13, -22,
   13, -16, -47, 6, 23, 8, -47, -17,
   -22, -31, 49, 44, 4, 27, -8, 44,
   7, 60, -73, 12, -36, 10, 55, -61,
   -42, -41, 19, 8, -44, 4, 19, -7,
   -26, -1, 41, -31, -33, -4, 51, -45,
   -42, 35, 1, -5, -31, -6, 34, 39,
   7, 57, -7, 16, 11, -55, 44, -42,
   114, 18, -28, -30, -44, 11, 27, 52,
   45, -53, 18, -24, 20, -2, -84, -128,
   -40, -40, -14, -19, -3, -57, 7, 41,
   35, -69, -76, 47, 30, -50, 12, 63,
   11, 16, -29, 50, -100, -3, 9, 33,
   -48, -15, 61, 0, -91, 38, 58, -17,
   -4, -22, 6, 84, 35, -79, 15, -72,
   77, -3, 46, 111, 4, -29, -27, -43,
   -21, 10, 25, -37, 39, 36, -41, -33,
   -16, -42, -15, 127, 94, 9, 80, -28,
   -35, 65, -72, -51, -58, 81, 33, 16,
   -46, -62, 60, -7, 22, -14, 29, 31,
   -5, -4, 98, -73, -21, -21, 55, 0,
   -12, -46, 101, 31, -15, 16, 47, 43,
   23, -2, 11, 10, 43, -6, 49, 6,
   25, 15, -38, -18, -23, -36, -36, 53,
   100, -38, -57, 65, 73, 38, -49, 23,
   -5, -24, 63, 3, -19, 17, 12, 73,
   2, 23, 9, -24, -17, 37, -1, -36,
   -30, -19, 19, 127, -53, 47, 62, 98,
   -75, 19, 119, 84, 53, -19, 70, -37,
   -62, 101, -6, 65, -87, 3, -100, -46,
   -54, 26, -27, -26, 24, -20, -22, -76,
   -66, -21, -54, -47, 85, -58, 2, -11,
   -65, -62, 26, -128, -125, 13, 4, 5,
   -43, -71, -67, -29, -17, -21, 47, -47,
   -13, 102, -22, -58, -61, -25, -15, 20,
   -63, 81, 13, 43, -36, 14, -67, -38,
   22, -49, 19, 12, 57, -48, 48, 16,
   71, 45, 39, 0, -38, -87, 47, -51,
   12, -49, 105, -52, 63, -13, 35, -22,
   39, 33, -11, -11, 32, 14, -66, 11,
   38, 30, -19, -79, -47, 40, 14, -42,
   48, 73, -35, 24, 5, -48, 73, -14,
   -18, 1, 18, -48, 4, 18, 7, 12,
   6, -66, 97, -79, -11, 69, -37, 13,
   -18, 18, -13, -55, -30, -18, -23, 50,
   -33, 111, -52, -15, 27, -44, 121, -72,
   61, -17, 29, -50, 18, 48, 36, -39,
   -1, 35, 47, 25, 12, 36, -29, 10,
   -39, 16, 98, 2, 0, -19, -21, -45,
   50, 52, -86, 43, -4, -18, -4, -77,
   -59, -32, -8, 59, -53, 109, -94, -18,
   7, 0, -43, -82, -1, -42, 19, 22,
   -24, -5, -10, -57, 81, 55, 64, -32,
   -27, -6, 26, -4, -19, 107, -32, 67,
   0, -41, 39, 43, -19, -28, -37, 26,
   7, 43, -102, 76, -15, -41, 7, -79,
   -10, -5, 28, -21, 15, -9, 22, -8,
   31, 57, 35, -5, -55, 11, 0, -2,
   4, 36, 44, -19, 43, -8, -34, -28,
   23, 7, 58, 8, 8, -57, 79, 8,
   33, 3, 5, 11, 42, -84, 30, -45,
   6, -11, -66, -20, -11, 90, 23, -73,
   10, -46, -12, -38, -10, -17, -36, 56,
   -3, -93, -30, -120, 20, 0, 29, -40,
   2, 31, -18, -4, 85, -35, -12, 7,
   -103, 31, 127, 43, 32, 59, 2, 23,
   11, 5, -103, 37, -128, -63, 10, 68,
   -25, 76, 47, -68, 14, 2, 53, -17,
   31, 41, 4, 42, 51, -128, 127, 58,
   16, -3, -13, -16, -60, 54, 22, -80,
   -21, -7, -2, 58, -107, -46, -33, -48,
   -41, -46, -41, 71, 99, -49, 59, 47,
   -4, 11, 2, -60, 5, -10, 68, 10,
   -11, -43, 77, -81, -43, 46, -18, 70,
   -65, -3, 37, -16, 9, -41, 16, -45,
   52, 17, -10, 36, 34, 11, 72, -33,
   42, 5, -22, -127, -90, -43, -30, 31,
   2, -17, 11, 43, -26, 32, -92, 32,
   -2, -106, 16, 35, -128, 49, -7, -27,
   25, 29, -70, -6, 17, 8, -14, -2,
   -78, 5, -69, 42, -52, -26, -23, -5,
   45, 15, 51, 30, -16, -99, 59, -33,
   5, -8, 0, -1, -42, -31, -87, -27,
   -71, -40, -44, -51, -48, 48, -8, -44,
   -1, -9, 61, 24, 85, -66, -53, -34,
   59, -86, 73, 115, 115, -20, -38, -48,
   54, -11, -12, -128, 127, 24, 83, -17,
   -13, -26, 15, -93, 34, 14, 21, 72,
   -6, -50, 16, 80, 56, 22, -10, 31,
   20, 13, -114, -77, -24, 5, -117, -50,
   -42, -60, 38, 41, -100, -104, -46, 24,
   -22, 48, 84, 84, -20, 59, 103, 12,
   91, 49, -59, -6, 63, 24, 1, 22,
   0, -36, -15, 42, 21, 24, -19, -25,
   -22, 6, 7, -22, 60, -23, -31, 5,
   28, -22, 24, -32, 10, 11, -12, 21,
   48, -44, -37, 1, 36, -41, 3, -23,
   -66, 72, -45, -66, 7, -12, 23, -20,
   -54, 20, 28, -39, 28, 15, -4, 4,
   -34, 50, -13, -47, -50, 14, -68, 30,
   -10, 19, -7, -11, 29, -35, 60, -43,
   59, -128, -80, -37, -60, 7, 40, -27,
   64, -37, -47, -33, 29, 20, -25, 33,
   -54, -3, -26, -2, -27, -26, 2, -14,
   19, 48, -33, 22, -50, 90, -67, -28,
   -1, -37, 22, -49, 51, -27, 30, 14,
   -51, 25, 45, 60, 50, -52, -83, 8,
   -15, -56, -1, -37, 27, -49, 26, 23,
   -7, 36, -32, -20, 32, 19, -7, 23,
   41, -27, -27, -22, 5, 9, -15, -2,
   -10, -31, 52, -24, 38, -77, -14, 21,
   25, 126, -57, 3, -55, -18, -2, -71,
   -59, -96, 5, -18, 14, 45, 32, 2,
   6, -31, -4, 7, -61, -23, -13, -50,
   -15, 3, 13, 5, -21, -66, 51, -4,
   46, 49, 24, 21, 56, -56, -42, 37,
   59, -12, 19, 6, -33, 33, 74, 77,
   -14, -11, -44, -101, 39, 16, 32, -79,
   -42, -5, 22, -24, -28, 11, 22, 57,
   8, -77, 31, -67, -7, -31, -1, 18,
   1, 8, 22, 48, -54, 17, 11, -27,
   -14, -66, -27, 4, 36, 43, 13, -51,
   61, 33, -25, -24, 40, -37, 44, -24,
   86, 66, 7, 32, -40, -29, -126, -21,
   31, 42, -68, 0, -11, -60, -14, -13,
   -9, -23, -34, 48, -66, -17, 49, 2,
   -45, 34, -22, -12, -43, 47, 85, 47,
   -36, -67, 36, 81, -50, -6, -40, -13,
   -41, 70, 87, 2, -6, 10, 20, -31,
   1, -105, 34, -19, 32, -9, 77, 127,
   24, 41, 7, -17, -21, -30, -15, 21,
   -32, 24, 11, -24, 83, 8, -13, -42,
   26, -13, 21, 26, 75, -8, -49, 10,
   57, -19, 92, 4, 9, 18, 63, -48,
   -44, -11, 49, -91, 1, 51, 66, -19,
   -32, -58, -9, 119, 7, 94, 64, 33,
   -56, 35, 17, 61, 35, -31, 29, -6,
   -6, 37, -22, 21, 47, 12, 54, 31,
   -15, 28, -113, -8, -7, 7, 0, 61,
   16, 0, -18, 0, 28, -54, 15, -74,
   -5, -23, 92, 7, -71, -46, 122, 43,
   -12, -36, -17, -15, -94, 0, 30, -4,
   -24, 19, 55, -99, -49, -73, 58, -1,
   -12, 42, -26, -19, 39, 26, -39, 21,
   -1, -14, -35, -28, 19, -30, -4, -30,
   31, 52, 6, -17, 4, -5, 22, 10,
   -16, -10, 41, 30, -54, 66, 28, 9,
   -12, -9, -10, 49, 13, 26, -43, 36,
   -15, -7, 35, -29, -37, 17, -10, 3,
   16, 41, 5, -2, 50, 56, 40, 32,
   -16, 42, 38, -32, -89, 0, 33, 20,
   38, 1, 50, 42, 32, -32, 10, 88,
   -13, 22, 54, 44, -10, -81, 65, 28,
   29, 21, 37, 42, 13, -127, -78, 49,
   6, -44, -27, -49, 31, 29, -33, -28,
   -11, 67, 22, 57, -34, 11, -73, -4,
   -42, -4, 26, -27, 4, 28, -3, -28,
   -22, 17, 32, 7, 31, 103, 23, -101,
   -61, 42, 103, -97, 19, 44, 25, -88,
   -41, -49, -9, 5, -6, 45, 60, 1,
   36, -48, -60, 67, 55, 16, 5, -38,
   2, 39, 27, 21, 22, 13, -22, -7,
   9, -15, 39, 22, 10, -12, -15, -10,
   -21, 71, -13, 6, -11, -28, 11, -62,
   10, -28, -84, -60, 87, 32, 57, 25,
   25, 24, -2, -16, 14, -76, -52, 11,
   31, -9, -63, 38, 1, 45, 21, 28,
   -44, 30, -55, 0, 2, 2, 29, -43,
   35, 22, -59, 15, 82, 103, -40, 12,
   31, -27, -65, -71, 21, 18, 11, -7,
   112, -29, -46, 27, -68, -52, 35, 6,
   -39, 35, 16, -76, 73, -95, 50, 3,
   -36, 27, -32, 10, -24, -39, -57, -8,
   11, 72, 50, 11, 94, 46, -114, 46,
   28, 51, -108, -46, 57, 33, -15, 17,
   43, -43, 37, 18, -4, -54, -19, 33,
   30, 19, 50, 51, 75, -56, 27, -27,
   4, -1, -12, -15, -26, 44, 7, -42,
   -14, -18, 24, 19, -5, -11, 0, -45,
   -19, 21, 34, 61, -28, -46, 36, 32,
   45, 1, -21, 28, 24, 4, -54, -24,
   -2, -12, 7, -7, 35, 52, 30, 34,
   -58, 4, 43, 36, -29, -2, -67, -34,
   -15, -16, 59, 35, -15, -39, 23, -92,
   52, -20, -33, -21, -22, -22, 44, 34,
   31, 29, -5, 50, 32, -42, 1, 66,
   32, -41, -35, 6, -90, 33, -21, 0,
   28, -53, -14, 74, -93, 70, -29, -2,
   -37, 5, -50, 44, -3, 16, -103, 13,
   30, -8, -21, 102, -11, 1, -20, 37,
   75, 33, -12, 65, 54, -31, -15, 46,
   -50, 18, 23, 27, 0, 24, 11, 15,
   -33, 28, 43, 21, -8, 127, -41, -49,
   -72, -39, 24, 81, 55, 58, -9, -10,
   9, 10, 88, 2, 47, 62, -21, 50,
   -8, -14, -2, -37, -52, -9, -7, 37,
   53, 11, -2, -22, 26, -18, -11, 18,
   40, 27, -48, -58, -22, -4, -77, 8,
   6, 5, 13, 13, -75, -7, 10, 0,
   -71, 11, -39, 19, 34, -24, -28, -10,
   81, -25, -61, -4, 33, 14, 10, 35,
   8, 20, 51, -39, -67, -23, 0, 119,
   42, 14, 33, -22, -45, -14, -42, -8,
   -34, 66, 50, -128, 4, -49, 37, 15,
   6, 1, 20, -22, -13, 33, -12, -11,
   -59, -91, 53, 91, -50, 15, 25, 12,
   8, -36, -79, -24, -37, -69, -128, -36,
   16, -10, 30, 52, 19, 42, -21, 3,
   -19, 56, -29, 8, 20, 11, 3, 28,
   6, -22, 13, 1, 24, 7, -59, -3,
   -4, -25, -47, 41, 22, -23, -10, -27,
   -14, -9, 67, -10, -45, 35, 39, -9,
   9, 11, 53, -5, -22, -7, 38, 19,
   -33, -56, 37, 31, -23, 16, -37, 25,
   42, 24, -22, 24, 10, 26, 38, 13,
   -16, 25, 28, 109, 46, 31, 10, -12,
   41, -11, -30, 46, 29, 13, -39, 20,
   -62, 67, -21, 13, 0, -19, 31, -1,
   -31, -27, 4, -51, 14, 44, 84, 1,
   30, -22, -16, -17, 1, 6, 17, 32,
   9, 37, 36, 28, -42, -28, 5, 36,
   14, 92, 11, -29, -20, 56, 79, -10,
   1, 22, -18, 5, -44, 1, -10, -18,
   -29, -60, -8, 53, -37, -23, -1, -26,
   43, -45, -55, 21, 2, -83, -57, -74,
   -14, 42, -8, 38, -4, 0, 24, -22,
   12, -19, 18, -13, -24, 13, 31, 20,
   -17, -45, 8, -22, -35, 22, -23, 42,
   15, -12, -3, -43, 49, 74, 32, 46,
   -19, -24, 21, -24, -60, 55, 60, 80,
   39, -21, 79, -17, -29, 38, 7, 9,
   -34, -35, 4, -33, 6, -30, 15, 24,
   19, 3, 41, -9, 0, -37, 47, -18,
   11, -41, 8, 47, 54, -25, -41, -26,
   24, -21, -5, -1, 18, -2, -11, -24,
   36, -5, 0, 15, 2, 28, 18, 8,
   13, 36, 105, 23, -35, 27, 9, -1,
   -60, -71, 28, 11, 6, -23, -90, -81,
   -48, -8, 1, 35, -13, -29, 43, 28,
   -17, 1, -32, 100, -9, 43, -12, -28,
   47, -19, -48, 1, 56, 7, -7, -16,
   34, 70, -41, -97, 11, 70, 5, -35,
   58, 5, -43, 126, -6, 121, 68, 10,
   22, 13, 39, -47, 42, 55, 21, 12,
   -55, 3, 26, -35, 9, 20, 10, 7,
   -14, -34, -6, 14, -7, 45, 79, 24,
   32, 14, 39, 19, 28, 76, 50, 52,
   9, 7, -3, -39, 19, 21, 44, 24,
   -64, 79, -57, -2, -34, 76, 19, -21,
   36, 1, -24, 38, -48, 42, 52, -10,
   -41, -21, -30, -22, 74, -29, -3, 27,
   -12, 29, 20, -45, -27, -64, -35, 29,
   -30, 9, 14, 6, 4, -47, 11, 34,
   83, -71, -14, -6, 70, 16, -17, -36,
   -17, 16, -42, -3, 32, -109, -127, 4,
   15, 16, 19, 33, 29, -37, 9, -46,
   9, -22, -41, -1, -36, -11, 40, 3,
   13, -14, -48, 19, 14, -48, -71, 48,
   -28, 29, 33, -22, 20, -15, -13, -22,
   -50, 15, 45, 26, 43, 52, -83, -6,
   -54, 21, -50, -1, 0, -8, -13, 17,
   -42, -40, -21, -58, 17, 52, 58, -42,
   -19, 15, -24, -27, 24, 43, 11, 14,
   17, -2, -4, -21, 12, -5, 41, 26,
   -18, -5, -42, 27, 29, -26, -49, -43,
   -17, 61, -12, 22, 45, 3, 10, -77,
   22, 6, -128, 31, 21, -32, 9, 37,
   22, -1, 25, -1, 36, 62, -6, 22,
   -7, 1, -43, 5, -4, 4, -17, 27,
   27, 22, 7, 20, 11, 72, -1, -35,
   27, 27, 11, 0, 60, -67, -34, -14,
   -49, 27, -19, 38, -27, 28, 8, -15,
   13, -5, -106, 15, -5, 5, -23, -22,
   37, -6, 75, -42, -13, 34, 54, -53,
   55, -19, 1, -7, 34, -17, 40, -9,
   -18, -10, 62, -3, -9, 6, 53, 18,
   27, 38, 11, 14, 38, 67, -24, 1,
   -27, -11, -58, 55, 34, -11, -35, -61,
   10, -15, -23, -19, 25, -37, -92, -14,
   -52, -10, 16, 54, -11, 35, 52, 27,
   12, -39, -35, 0, 3, -37, -44, -21,
   -25, -95, 28, -21, 43, 24, 58, -4,
   -38, -5, -59, 19, -41, -49, 9, 11,
   -32, 5, -30, -11, -17, -3, 17, -22,
   2, -37, 127, -33, 17, -34, -66, 29,
   0, 29, 24, -65, -64, -30, 33, 31,
   -32, -8, -10, -5, -25, 1, 19, -2,
   31, 11, -40, -78, 2, -5, -10, 32,
   26, 46, -28, 13, -66, 14, 18, 14,
   14, 25, -12, -2, 34, -20, -4, 14,
   -18, -30, 46, 15, -44, -26, -27, 1,
   51, 24, 56, 35, 23, 48, 34, 26,
   -2, -1, -25, -47, 0, -12, -19, 6,
   32, 63, 42, -49, 15, 31, -111, -24,
   -38, -60, -21, -70, 2, 49, -20, 27,
   -14, 1, -24, -99, 57, -17, -28, -12,
   -38, 30, 21, -11, -34, 33, -62, -29,
   -40, 35, 46, -79, 51, -1, -23, 5,
   32, 13, -9, 39, 0, 60, -31, 31,
   -5, 84, -29, 4, 50, 25, 44, -21,
   -26, 18, 7, 51, 7, -5, -49, -12,
   31, 0, 47, -44, 11, 55, -51, 13,
   -34, 66, -75, -19, -19, -20, 16, -16,
   0, -3, 5, 62, 12, 6, 40, 17,
   -37, 31, -14, 5, -4, 6, 30, -41,
   35, -30, -58, -22, 34, 26, 22, 32,
   37, 2, 19, -30, -16, 22, -1, 19,
   -15, 17, 18, -25, -11, 43, -10, -33,
   -4, 23, -29, 43, -15, -1, -43, 52,
   8, 17, -10, 27, 20, 4, -17, 6,
   1, -37, 12, 9, 16, 2, 10, 10,
   24, 14, 36, -18, -20, 13, -14, 6,
   -22, -16, 18, 24, 4, -16, 5, 2,
   -3, 26, 0, 30, -8, 19, -3, -3,
   19, -15, -22, -13, 7, 2, 3, -3,
   4, 35, 12, -21, 36, 29, 20, -45,
   -41, -29, -25, 4, 19, -24, -4, -42,
   13, -13, -23, 50, 28, -1, 13, 16,
   9, -18, 21, -43, -51, -59, 17, 23,
   -5, 0, -25, -40, 0, 33, -45, -3,
   3, -75, 84, 29, -21, 11, -8, 21,
   -6, 1, -4, 1, 13, 11, -4, -8,
   9, 9, -32, 17, 2, -3, -22, 26,
   17, -10, 7, -10, -2, 9, -21, -4,
   5, 15, 27, 28, 14, -11, 14, -7,
   11, 6, -8, 8, 7, 17, 18, 13,
   -27, -38, 54, -6, 11, 6, -1, -11,
   -9, -15, 10, 31, 11, 8, -55, -36,
   -40, 20, 37, 14, -30, 47, 1, -10,
   10, 2, -74, -33, 35, -24, -15, 27,
   -29, -29, 0, -10, -9, -11, -37, 1,
   -48, -40, 2, -20, -4, -83, 24, -21,
   -38, -9, 11, 39, -8, 29, -31, -27,
   13, -2, -11, 2, 10, -56, -12, -34,
   -9, 1, -27, -62, -40, -11, 18, -3,
   -8, -36, 40, 10, -3, -7, -20, -11,
   -3, 8, -7, 3, -11, 18, -16, 6,
   -43, -19, -15, -7, -6, 33, -19, 7,
   4, -27, -24, 2, -15, -7, 17, -47,
   -7, -14, 17, -13, -25, 14, -8, 24,
   -20, 21, -10, 15, -5, 37, 0, -12,
   16, 5, 0, 12, -42, 8, 22, -35,
   39, 30, -15, -25, -3, 39, 36, -21,
   -3, 12, 5, -30, 14, -3, 23, -5,
   -7, 11, -15, 13, 0, 16, 7, 1
};

static const rnn_weight noise_gru_recurrent_weights[6912] = {
   -32, 15, 6, 48, -32, -6, -5, 37,
   -3, 11, -5, 54, 12, -2, 2, 20,
   38, 3, -26, 0, 23, -9, -3, -16,
   -36, 33, -5, 34, -14, 7, -24, 23,
   -6, 0, -8, -11, 9, 3, 20, -26,
   -2, -8, -2, -55, -13, 18, 53, 24,
   -34, -30, 4, -54, 12, -35, 11, -21,
   33, -30, -7, 12, -14, -10, 5, -51,
   42, 12, -14, 52, -3, 1, 3, -9,
   -57, 10, -23, 37, -8, 30, -59, -5,
   16, -18, -29, -42, -3, 32, -25, -22,
   -28, -9, -37, 30, -30, -26, -27, -19,
   17, -69, -6, -36, -15, -13, -12, -5,
   -13, -33, -37, 4, 25, -34, -19, -7,
   54, 39, -8, 15, 20, -9, 24, -3,
   -20, -22, -43, 4, 20, -13, -11, -11,
   -26, -7, 23, -1, 21, 1, 6, 30,
   -8, 40, 21, 19, -15, 15, 71, -17,
   11, -55, -21, 47, 1, -59, -5, 28,
   12, 2, -26, -41, -48, 4, 17, -31,
   89, -12, -4, 12, -16, 13, -3, 32,
   0, -2, -12, -19, -24, 26, -4, 9,
   -4, -5, -12, 5, 10, -26, 3, 35,
   10, 28, -7, -61, -8, 31, 36, -3,
   -16, 9, -24, 27, -20, -38, -10, 25,
   -19, 10, -34, -15, -4, -13, -61, 8,
   18, 42, -20, 16, 2, 3, -22, -2,
   -16, 6, 3, 23, -2, -6, 3, -27,
   3, -5, 26, 33, -2, -6, -37, 55,
   -1, 5, 5, 38, -27, 14, 21, 41,
   28, 14, 13, 42, 35, -12, 48, 50,
   0, 18, -5, -22, 47, 24, 1, -3,
   -33, -1, 29, 33, 5, 10, -28, 12,
   33, -11, 0, 38, 24, 18, -23, -21,
   -20, -1, 14, -12, 14, 13, 21, 34,
   21, 5, 22, 30, 19, 21, -23, 23,
   29, -9, 2, 19, -2, 30, -16, 10,
   38, 11, -7, 44, -40, 12, 7, -2,
   4, -4, -13, -56, 31, 13, -47, -9,
   -16, 8, 13, 26, -2, -6, 29, 39,
   18, -40, -109, -38, 38, -33, -16, 45,
   -53, -68, -85, -28, 89, 18, -11, 0,
   -5, 18, 4, -23, -37, 60, -8, -51,
   -21, 20, 14, -25, 19, 15, -33, -33,
   1, 28, -2, 38, 39, 32, 8, 7,
   36, 56, -6, -29, 4, 19, 31, 5,
   9, -25, 55, 35, -7, -1, -24, 16,
   -15, 11, -5, -39, 45, 15, 9, -58,
   37, -20, 16, 32, -13, 35, 7, -19,
   36, -16, -16, 26, 27, -3, -71, 56,
   -3, 20, 32, 8, -4, 47, 3, 12,
   35, -21, 13, -30, 33, -8, -9, 11,
   23, -9, 29, -10, -22, 38, 20, -25,
   6, -2, -11, -8, -14, -6, -8, -14,
   -71, 3, 1, 4, 39, -21, -14, -44,
   29, -25, -51, -107, -6, -25, 10, -16,
   17, -5, -31, 1, 5, -6, -23, 8,
   -34, -19, -15, -25, 27, 35, -36, 21,
   25, -48, 46, -7, -16, -26, 18, 34,
   -59, -23, -13, 19, -5, -2, 30, 21,
   0, -17, 51, -13, -10, -15, -2, 22,
   -44, -68, -1, 19, -15, -33, 0, -67,
   -26, -7, -48, 8, -12, -48, -42, -18,
   5, -50, -13, 1, 12, -3, 2, 36,
   26, 9, -3, 13, -24, 33, -35, -21,
   -36, 4, -6, -56, 49, -25, -8, -1,
   -9, 10, -14, -26, -42, -29, -15, 9,
   9, 15, 13, 64, -14, -19, -56, 38,
   4, 7, 7, 4, -9, 19, -24, -24,
   10, -20, 1, 33, 24, -34, 26, -25,
   11, 27, -25, 17, 37, -18, 38, -25,
   50, 25, 29, 2, 5, 11, -18, -30,
   2, 15, -56, -23, 15, -54, 20, -12,
   -5, 5, 6, 8, -30, 43, 9, -5,
   -12, 36, -43, -31, 4, -6, -1, 3,
   -9, 19, -37, -14, 17, -31, 46, 38,
   -7, 12, 54, -27, 0, 23, -35, -19,
   28, 20, 3, -16, 1, -47, 10, -17,
   21, -3, -8, 7, 13, -17, -24, -20,
   -1, 13, 28, -5, -25, 27, 50, 9,
   -11, -9, 46, -24, -40, -26, -30, -30,
   -20, 7, -7, 12, -2, 57, 53, 17,
   -3, 64, 19, -7, 6, 18, -2, 22,
   -25, 9, 3, -58, -9, -29, -4, 41,
   -4, 51, 11, -4, -1, -29, -1, 11,
   -11, 30, -40, -34, -4, -8, 12, 10,
   36, 11, 12, -21, -38, -13, 42, -38,
   -41, -23, -21, 19, 0, 30, 66, 1,
   11, 18, 17, 50, 16, -6, 43, 18,
   21, 0, -4, 20, 0, 6, 3, -2,
   -19, 31, -52, -33, 14, -30, -63, -62,
   -6, -11, 10, -62, 44, 9, 35, -20,
   -25, 11, -32, 36, -6, 64, -37, 14,
   4, -25, -36, 48, -20, -13, -39, -30,
   -5, 75, -63, -17, 52, -17, -9, -25,
   -15, -16, -5, 16, 17, 31, 1, 2,
   8, 24, 6, 14, 17, 14, -35, -45,
   22, -62, 43, -5, -7, 6, -16, -34,
   -31, 0, -38, 9, 5, -24, 41, 4,
   54, 24, -28, -27, -32, -6, -9, 26,
   -3, -56, 25, -13, 47, 24, 6, -31,
   -29, 10, 25, 21, 18, 41, 18, 4,
   -14, -6, -46, 28, 28, -14, 25, -8,
   -18, 25, -34, -49, 13, 39, -46, -31,
   -1, -31, -20, 30, 33, 11, 5, -8,
   42, 22, -68, -11, 50, -34, -13, 14,
   -39, 73, -14, -27, 16, -72, 9, -47,
   54, -4, 20, 18, -10, -12, 19, -14,
   4, -1, -7, 0, 21, 10, -37, -27,
   28, -9, -28, -3, -11, -7, 31, -48,
   67, 19, -37, 33, -57, -12, -23, 18,
   -16, -38, 9, -14, 21, -53, -46, 48,
   25, 28, -23, 46, 17, 23, -19, 25,
   38, 5, 43, 7, 44, -33, -16, -46,
   -8, 4, -18, 13, -3, 6, 37, -34,
   0, 5, -11, 40, -12, 43, -34, 29,
   26, -26, -7, -25, 17, 31, -30, 32,
   -4, 20, 1, 39, 7, 0, -94, 6,
   21, -14, -21, -20, 1, 13, -3, 11,
   -2, 11, -1, -6, 28, 4, 2, 27,
   -7, 55, -39, -5, 0, -10, 28, 4,
   16, 27, 10, -15, -37, -11, 5, 24,
   -26, 1, -6, 6, 1, 16, 25, 10,
   43, -5, 13, 47, 28, -13, 15, 23,
   -25, 15, -26, -5, 12, -31, 0, 4,
   13, -9, 15, 25, 6, 25, -24, -35,
   -2, 25, -31, -39, 3, -17, 18, 0,
   23, -4, 12, 58, -21, 8, -22, 33,
   38, -13, 25, 44, -28, -9, -56, 6,
   27, -52, -22, 3, -15, 3, -40, 2,
   16, 25, -55, -4, -21, -35, 36, 1,
   3, -25, -15, -8, 33, 19, 21, 3,
   7, -11, -12, -17, -33, 1, 36, -25,
   -6, 42, -16, -17, -61, -35, -10, 21,
   39, 23, 8, -9, 22, -41, 37, 8,
   -35, 24, 26, -6, 45, 3, -14, -21,
   -10, 18, 24, -6, -28, -34, -32, -11,
   12, -9, -5, -23, 14, -33, -13, 12,
   -81, 25, 37, -49, -9, 16, 2, 22,
   -5, 49, 40, -37, 2, 34, 41, 35,
   -11, -9, 23, 30, 11, -8, -26, 20,
   -19, -1, 26, -14, 21, 56, 13, 44,
   39, 51, -57, -6, 36, 1, -25, -4,
   20, 42, -30, 26, 23, 17, -16, 47,
   20, 21, 40, 34, -19, -23, 20, 5,
   -18, -15, 13, 67, 51, -3, -19, 19,
   52, -41, 27, 12, 8, -34, -15, 15,
   -7, 64, -36, 8, -17, 17, -16, 67,
   -67, 41, -60, 10, 16, 18, 64, 5,
   73, -57, -13, 12, 9, -19, -18, 34,
   -6, 1, 13, -16, 15, 30, 39, -7,
   -27, -27, -53, 13, -18, -9, -33, -34,
   -24, -12, 3, 46, -5, 12, -10, 16,
   10, 36, -34, -6, -3, 32, -39, 27,
   -53, -8, 98, 16, -2, -21, -50, -60,
   -26, -9, -29, 43, 10, -11, -1, -11,
   -8, 32, 30, 64, 18, 6, -11, -36,
   -5, -72, -11, 36, -7, 29, 30, 40,
   0, 73, 26, 43, 14, 33, 2, -52,
   1, 0, -33, 11, 9, 7, -7, -22,
   30, -18, 22, -21, 35, 4, 12, 36,
   61, 4, -1, 18, -7, 12, 0, 1,
   -39, -43, -89, 10, -8, 30, -41, -53,
   -28, 21, -11, -1, -6, 33, 6, 0,
   -43, 37, -21, -7, -16, 24, -44, -22,
   -34, -55, 27, -19, 19, -8, -28, -9,
   -17, -39, -21, -4, 71, 1, 36, -11,
   11, 5, -13, 26, -22, -7, -16, 37,
   29, -4, -30, -17, 11, -8, 12, -11,
   -13, 32, 56, 3, 32, -37, 33, -36,
   -15, -20, -44, 30, 30, 20, 6, 13,
   0, 1, 20, -4, -5, -49, 0, 15,
   -45, 23, -36, -17, -1, -92, 54, 15,
   -19, -49, 36, 6, 18, -40, 33, 48,
   19, -42, 34, 14, -20, -23, -42, 0,
   -8, 49, 12, -15, 23, 12, 17, 11,
   27, 25, 23, 14, 44, 31, 31, -33,
   40, -9, -7, 5, -19, 31, 30, -13,
   34, 9, 2, 1, 18, -39, 54, -3,
   -27, 3, -14, -65, -11, -10, 37, 4,
   -15, -2, -50, 3, 3, -21, -41, 8,
   4, 51, -25, 5, -19, 37, -10, 23,
   -13, -58, 41, -23, -25, -2, -10, 11,
   -9, -12, -1, -9, -1, -27, -23, -17,
   -14, -30, -19, 19, -2, -1, 5, 26,
   -7, -15, -26, 51, 44, 22, 46, 28,
   -9, 44, 50, -7, 53, -58, 11, -35,
   20, 35, -28, -37, -15, -37, 4, 2,
   -35, 4, -28, -30, 5, 52, 33, 17,
   20, 40, -5, 20, -57, 77, 33, 6,
   19, 11, 50, -7, -15, 127, 6, 41,
   12, 108, 37, 18, 6, -11, 13, 1,
   16, -67, 30, 11, -102, -16, -40, 21,
   -17, 66, -1, -44, -8, -5, 13, 2,
   6, 18, -10, -48, 28, -12, 42, 3,
   31, 43, 24, 4, -67, -6, 43, 25,
   9, -58, 22, -11, 19, -14, -15, 44,
   15, -6, -14, -40, 9, -34, -16, -6,
   4, 39, -56, 5, 28, 19, -48, 18,
   14, -49, -13, -21, 14, -7, 15, -3,
   -9, -47, -2, 62, -15, -15, -7, 4,
   -42, -18, -18, 15, -14, 9, -51, 37,
   -5, 29, -25, -6, -36, -114, -18, -27,
   32, -30, -8, -49, 27, -22, 50, 24,
   -15, 36, -20, 19, 9, 6, 15, -51,
   -19, -38, 21, 15, 17, 4, -11, 18,
   -1, 10, 7, 28, 16, -18, 20, 57,
   -32, 9, -18, 48, 8, 19, 0, 28,
   26, -8, 40, 24, 21, -11, -15, -14,
   14, 23, 8, 1, 21, -2, 55, 15,
   31, -33, 69, 74, -46, -21, -56, 64,
   -4, -3, -10, 54, 58, -46, 16, 9,
   -7, 58, 12, 2, -8, 10, -50, 26,
   11, -31, 41, 10, -18, 74, -44, 7,
   46, 26, 89, -8, 3, 33, -7, -1,
   31, -22, -75, -66, 20, -39, -12, -20,
   -81, 23, 12, 0, 26, 52, -5, -58,
   11, -27, -22, 117, -23, 27, 4, 34,
   51, -12, 6, 21, 36, 35, -34, 26,
   14, -38, -39, 43, -33, -8, 55, 40,
   16, -13, 24, 9, -38, -36, -15, -13,
   -30, -16, 16, -1, 38, -24, -24, 0,
   15, -19, 8, 25, -25, -2, -51, -9,
   -75, 13, 37, -33, 17, 19, -31, -13,
   8, 6, -23, -30, -34, -57, -16, 37,
   -7, -26, -18, -32, 17, 29, -9, 37,
   5, 86, -17, 15, -21, 5, -12, -27,
   -2, -38, 19, 9, 50, -44, 20, -10,
   -46, 45, -10, -29, -8, -49, 55, -13,
   5, -26, 9, -25, 11, 18, 12, -6,
   3, -9, -11, 37, -4, 17, -5, -6,
   45, 27, -7, 42, 1, -11, 54, 23,
   -11, 18, -18, -52, 41, -16, -37, 3,
   -19, 33, 51, 23, 20, 16, 15, 13,
   3, -35, -28, 2, 19, -23, -41, 5,
   34, -25, -2, 29, -28, 35, 12, 12,
   -23, 50, 6, 8, 23, 15, -8, 34,
   -4, -3, -26, 1, -18, -6, -22, 57,
   65, -1, 16, -22, 18, 14, -50, 46,
   16, 7, 7, -17, 7, -11, -25, 24,
   -7, 18, -25, 12, 17, -3, -15, 21,
   6, -22, -6, -15, 26, 0, 10, 8,
   -27, 9, 36, 19, -21, -14, 19, -16,
   -59, -4, 44, -8, -17, -14, -21, 38,
   -16, 111, -36, -46, -39, -2, -49, -35,
   -42, 31, 17, 30, -22, 10, -32, 24,
   30, 48, -35, 25, 45, -4, 9, 26,
   17, 5, 1, -30, 15, 7, -4, 23,
   -27, -16, 13, -9, 21, 54, -17, -8,
   -11, 22, -20, 10, 1, -2, -24, 30,
   0, -2, 18, 1, 23, 12, 15, 37,
   -3, 3, -27, 49, 0, -1, -2, 47,
   -27, -6, 13, -28, 13, -6, -30, 23,
   -24, -7, -57, 43, -6, -7, 7, 34,
   40, -6, -54, 28, 40, 1, -6, 40,
   -3, -45, -14, 1, -22, -8, -3, 66,
   7, -30, 2, 17, 4, -12, 3, 9,
   -45, -8, 39, -69, -6, -54, 21, 21,
   30, -3, -8, -23, -2, -19, -11, 8,
   -20, 68, -5, -9, -10, 12, 12, -62,
   30, -33, 36, 19, -8, -4, -11, 18,
   1, 2, -2, 33, -15, -7, -20, -27,
   -25, 6, 2, 29, -29, 7, 35, 9,
   16, 46, -18, -25, -14, -11, -13, 1,
   9, -38, 4, 4, -3, 9, -29, 11,
   -20, 63, 52, -6, -12, -10, 20, -2,
   -9, 56, 23, 4, -3, -28, 16, 13,
   -30, 11, -37, -15, -21, -18, 22, 12,
   -13, 29, 29, -33, -25, -51, 16, -2,
   -41, -6, 42, 30, 5, -23, -4, 31,
   22, 32, -17, 21, -7, 38, 25, 15,
   1, -19, 34, 8, -26, 41, 23, 39,
   58, 45, 19, 37, -4, -14, -1, -8,
   -15, 9, -9, -14, 3, 38, -48, 51,
   -18, 17, 0, 11, 26, -22, -6, -4,
   -16, 44, -9, -21, 33, -44, 8, 11,
   -30, 18, 12, -19, -31, -5, 9, -12,
   -29, -27, -29, -36, 6, 12, -49, 4,
   41, 21, 5, 22, 4, -20, -5, 10,
   34, 6, -24, 26, -35, -52, -19, -24,
   -19, 13, -31, -9, -7, 3, -13, -33,
   -22, -48, 22, -9, 4, 11, 49, -25,
   11, -13, -1, 23, -24, 11, -29, 35,
   4, -6, 0, -14, 47, -12, 31, -15,
   3, 2, 31, -42, -23, 28, -25, -6,
   21, -31, -31, 14, -31, 38, 39, 20,
   -3, -32, -4, -12, 36, 13, -28, -57,
   32, 14, -44, 19, 6, 22, -8, 26,
   -20, 0, 5, -6, -16, 5, 36, -10,
   -2, -37, -20, -34, -5, -10, 13, 25,
   127, 2, 3, -54, -12, 0, 13, -22,
   -7, 34, -27, -49, 20, -4, -56, 4,
   -26, 41, 7, -28, 18, -12, -2, -27,
   -28, 5, -5, 29, -70, 1, 2, -21,
   2, -17, 17, -3, 17, -39, 12, -11,
   25, 28, -7, 13, 45, -8, -30, 3,
   19, 34, 21, 19, 16, 29, -12, 18,
   5, 19, -17, -5, 5, -11, 0, 14,
   -24, -14, 35, -19, -52, 17, 15, 49,
   7, 52, 20, 20, 4, -7, -9, -14,
   -32, -9, 1, 30, -15, 23, 22, 46,
   17, -68, -7, 2, -2, 6, 4, -17,
   17, -5, -42, -51, 30, -23, 39, 31,
   -16, 13, -4, 24, 8, -13, -21, 41,
   36, 27, -31, -1, -21, 16, -52, 48,
   17, 33, 29, 49, 35, 66, -21, 27,
   15, 37, 49, 13, 16, 42, -46, -12,
   3, -41, 0, 17, 44, 9, 11, -1,
   30, -20, 20, 42, 38, 66, -29, 14,
   -8, -11, -27, 4, -38, -38, 1, 15,
   13, 45, -58, 55, 15, 36, 54, 27,
   21, 18, -7, -9, 14, -7, 26, 3,
   32, -4, 64, 10, -32, 43, -13, -57,
   -5, -23, 13, -23, -53, -50, 20, 6,
   -17, -14, 41, 7, 17, -48, 15, -4,
   -3, -35, 24, 33, -19, 7, 67, -5,
   6, -4, -13, 9, 8, -12, -18, -32,
   1, 30, -30, -11, -14, 17, -26, -17,
   34, -36, 5, 64, -35, 2, 57, -17,
   27, 9, 24, 40, 44, 20, 16, 40,
   46, 14, -14, 46, 1, 19, 13, -17,
   1, -28, -46, 37, -37, 28, -33, 26,
   53, 26, -11, 22, 9, 10, 2, -20,
   12, -52, -76, -32, 0, 18, -12, 8,
   26, 13, -1, 39, 14, 9, -67, 37,
   -22, -8, -24, 4, 15, 42, 12, 55,
   -29, -34, -40, -16, -25, 20, -29, 11,
   -24, -33, 40, 40, -54, -14, -4, 50,
   41, 1, 32, 45, 12, -17, -32, 13,
   -32, -3, -12, -8, 6, -35, 46, -6,
   -21, -4, -19, -34, -15, 31, 2, -48,
   3, -27, -10, 11, 2, -2, -19, 12,
   13, 17, -31, 22, -14, 2, -16, 49,
   39, -37, -22, -41, -3, -5, 28, 12,
   12, -34, -3, -12, -44, -39, 1, -45,
   -10, -18, 59, 35, -31, 9, 63, 22,
   10, -64, 8, -29, 29, 13, -12, -23,
   37, -17, 1, 0, 30, 35, 9, -2,
   5, -9, 16, 39, -40, 13, -5, -14,
   -40, -35, 7, 6, -2, 10, 35, 25,
   1, 30, -14, 20, 46, 26, 8, 31,
   2, 1, -1, -26, 21, -3, -51, -31,
   10, -68, -34, -48, -21, 0, 43, -20,
   30, -25, -43, -26, 10, 8, 4, 4,
   0, 18, 38, -5, 35, -41, 0, -31,
   -40, 9, -7, -9, -21, -28, -29, 35,
   31, -37, -77, 53, 30, 13, -41, 21,
   -12, -7, -17, -44, 16, -17, -22, -25,
   -19, -1, -32, -48, 30, -30, -20, 1,
   -14, -5, 22, -55, -27, 24, -27, 23,
   3, -47, 14, 22, -30, 23, -3, 13,
   -18, -27, 5, 27, -10, 30, 0, -1,
   -5, 99, -27, 3, -56, 13, 13, 2,
   -7, -29, 21, 44, 20, -2, 48, 12,
   -44, -7, 2, -13, 25, -15, 30, -3,
   20, -31, -26, -22, 25, 37, 92, 9,
   -23, 8, 8, -18, 7, -4, 24, -15,
   16, 21, 42, 75, 28, 16, 0, 45,
   -11, 52, 3, 30, -9, -51, 36, -12,
   13, 1, 5, -9, -19, -10, -12, -16,
   2, -40, 18, -22, 10, -23, -22, 74,
   22, -9, -23, -24, 9, 21, -1, -9,
   12, 39, -49, -20, -4, 24, 21, -38,
   18, 1, -10, 38, 17, 1, -13, 35,
   -10, -32, -34, 2, -9, 21, -6, 7,
   9, 39, -9, 31, 22, 11, -5, -5,
   -13, 32, 24, 0, 28, 29, -10, 1,
   1, -20, -40, -25, -19, 58, -46, 7,
   11, 73, 29, 3, 17, 31, 17, 0,
   -37, 9, 6, -8, 19, -4, 14, 43,
   -14, -5, 54, 20, -24, -39, 69, 13,
   19, -2, 3, -6, 2, -8, 34, 0,
   -5, 19, 38, 22, -1, 16, 1, 39,
   14, -42, -39, -22, 11, -45, 8, -1,
   32, 30, 23, -9, -1, 22, 0, -25,
   48, 1, 11, 2, 30, -4, -18, -9,
   6, 2, -20, -13, -17, 28, -29, 28,
   -46, -10, 2, 17, -37, 16, -16, 0,
   14, 24, -6, 7, 24, 10, -24, 28,
   14, -10, -2, 63, -3, 28, 30, -23,
   26, -1, -37, 18, -8, 23, -51, 44,
   -12, -24, 2, -16, -47, -9, -1, 46,
   15, 46, 1, 15, 13, -36, 13, -2,
   3, -4, -5, -34, -17, 27, -28, 1,
   -22, 52, 51, -2, -12, 5, 14, -43,
   -6, 3, -35, -27, -7, -11, -42, 41,
   -19, 12, 24, 15, -2, 18, 6, 8,
   10, -69, 8, -17, 2, -4, 15, -8,
   -27, 55, -4, 19, -8, -19, -31, -14,
   -53, -19, -33, -3, 43, -6, -3, 4,
   -4, 22, -31, -35, 2, -44, 42, 4,
   13, -16, -55, 4, 4, 60, 9, -11,
   25, 49, 5, 1, 9, -30, 6, 13,
   -23, 16, 6, -2, 39, 3, 11, -11,
   41, -16, -4, -3, 3, -10, 9, -9,
   24, 0, 2, 39, 2, 14, 29, -28,
   18, -26, 4, -9, -30, 11, -26, 0,
   16, 25, -36, -31, 8, 1, 47, -43,
   18, 13, -3, -50, -18, -26, -77, 26,
   78, -68, 2, -12, -5, -23, -20, 12,
   5, -53, -7, -32, 29, 7, -48, -25,
   -35, -36, 32, 18, -2, -40, 15, -1,
   -6, 15, 5, 6, -23, -42, -2, 11,
   11, -22, 23, -22, 21, -22, -26, 25,
   5, 11, -19, 26, -4, 12, -47, 40,
   -48, -1, -13, -20, -12, 17, -10, 36,
   36, 3, 31, 16, -26, -27, 41, 11,
   -20, 3, 6, 41, 34, 21, -18, -23,
   4, -13, 21, -7, 8, -7, 33, -11,
   -20, 2, -14, 39, 3, -13, -13, 73,
   24, 48, 12, 9, 19, 9, -32, -22,
   -24, 56, 6, -13, 29, 57, 52, 1,
   14, -9, 43, -14, -30, 3, -30, 11,
   24, -11, -12, -19, -9, 6, -14, -10,
   21, 14, 18, 11, -57, -12, -16, 83,
   24, -42, -57, 48, 17, -50, 8, -10,
   32, 28, -1, -114, 31, -16, -73, 30,
   -27, 41, -1, 10, -20, -2, -13, 4,
   59, 14, -5, -11, -11, 35, -34, 72,
   -81, 14, -10, -12, 62, -48, -48, -5,
   -12, 26, -58, -22, 16, 14, -23, -1,
   -18, -36, 34, 12, -17, 65, 41, 27,
   -61, 18, -2, -9, 5, -19, -40, -11,
   0, 39, -3, 44, -2, 8, 0, -15,
   87, -24, -21, -62, -40, -46, 2, 59,
   55, 14, -27, -15, 10, -11, -21, -1,
   -12, -31, -16, -33, 29, 8, -7, 18,
   -17, -28, 40, -6, 19, -10, 27, -25,
   31, 41, 7, 6, 8, 25, -2, 41,
   39, 33, -44, 5, -58, 8, 21, 2,
   -7, -28, 7, -65, -6, 17, -14, -14,
   42, 13, 31, 10, -28, -5, -17, -9,
   -13, -18, 34, -48, -11, -70, -10, 24,
   -44, -14, 23, -22, 5, -38, 68, 40,
   53, 12, -39, 38, 14, -45, 14, 30,
   -7, 4, -10, -44, -13, 4, -14, 20,
   -6, -27, 20, -94, -1, -26, 9, 4,
   -27, -24, -28, -35, 17, 4, -2, -59,
   -46, 55, 32, -33, -6, -14, -6, 14,
   -43, 19, 18, -55, 10, -25, -23, -9,
   43, 19, 3, 18, 9, -25, 10, -15,
   18, -18, 33, -14, 24, 9, -8, 3,
   29, -6, 35, -47, 11, -43, -5, -3,
   25, 7, 34, 25, -15, -25, 25, 17,
   34, 2, 28, 26, 22, 26, -4, 31,
   -15, -33, -22, -19, -22, -9, -19, 14,
   39, 23, 18, 9, 26, 41, 38, -49,
   -27, -2, 22, -11, 17, -7, 17, -19,
   -1, 12, 23, -14, -5, 6, 25, 3,
   -11, -38, -43, -19, -9, 21, 8, -23,
   -27, -28, -28, -56, -17, -19, -4, 36,
   4, 34, -19, 13, -16, -28, 29, -30,
   7, 34, -11, -33, 17, 51, -38, 10,
   -8, -10, 10, 10, 11, -38, -32, 44,
   32, -41, -4, -29, 17, -41, 1, -22,
   -32, -14, -6, -52, -14, -28, -20, 14,
   10, 23, 14, -27, 65, 8, 0, 7,
   23, -6, -44, -31, 0, 36, 6, -9,
   -27, 33, -6, 18, 22, -3, -3, 16,
